{"max_k": 20, "mlp1": [{"weight": [[-0.35289743542671204, -0.5338877439498901, 0.11295982450246811, -0.4496803879737854], [0.39717763662338257, -0.1529608815908432, -0.011342940852046013, 0.3178381323814392], [0.5605999827384949, 0.16159646213054657, 0.7917314171791077, 0.15254828333854675], [-0.5037660002708435, -0.5721719861030579, -0.48924145102500916, -0.013693930581212044], [-0.36153703927993774, 0.0017298037419095635, -0.5208340883255005, 0.2621579170227051], [-0.23034024238586426, 0.2208976149559021, 0.339363694190979, -0.5061127543449402], [-0.10293294489383698, 0.03989912569522858, 0.7197482585906982, -0.2959257960319519], [0.008202173747122288, -1.0868163108825684, 0.0955229103565216, 0.015006235800683498], [0.481195867061615, -0.3377021253108978, 0.5116795301437378, 0.05829627066850662], [0.5169299244880676, 0.18590031564235687, -0.3533555865287781, -0.03832322359085083], [-0.21597638726234436, 0.02183549851179123, 0.3493882715702057, 0.4667600393295288], [0.23975327610969543, 0.19841855764389038, -0.3592551648616791, -0.11672242730855942], [0.19753603637218475, 0.16218620538711548, -0.11248520016670227, 0.2203737199306488], [-0.22595897316932678, 0.20684678852558136, 0.6706229448318481, 0.16484293341636658], [0.15183910727500916, -0.230305477976799, 0.38493114709854126, -0.20989075303077698], [0.31094637513160706, 0.4009709060192108, -0.6033649444580078, -0.008424557745456696], [-0.35681819915771484, 0.026065252721309662, -0.8903584480285645, 0.26829004287719727], [0.4728553593158722, -0.21581952273845673, 0.19913510978221893, 0.46798887848854065], [-0.28440406918525696, 0.13294543325901031, -0.13402457535266876, 0.18919387459754944], [-0.12979182600975037, 0.2997915744781494, 0.8443057537078857, -0.22178597748279572], [0.5414844751358032, 0.3749805688858032, 0.851118266582489, -0.004473558627068996], [0.34504324197769165, 0.17704124748706818, -1.324573278427124, 0.0959596037864685], [0.09890589118003845, -0.8975120186805725, -0.2512038052082062, 0.0014361236244440079], [-0.08665400743484497, -0.2396600842475891, -0.36953169107437134, -0.11444759368896484], [-0.019148539751768112, 0.5256485939025879, 0.7820954322814941, 0.06464780122041702], [0.4051755368709564, 0.2823837697505951, -0.03248400613665581, -0.06462810933589935], [0.33032888174057007, 0.3438013195991516, -0.3701949715614319, -0.4507530927658081], [-0.02076796256005764, 0.6982524991035461, 0.014878444373607635, -0.011514641344547272], [0.3748183846473694, -0.10920912027359009, 0.6887968182563782, 0.4190099537372589], [0.45908084511756897, -0.22736576199531555, -0.9545019865036011, 0.14027918875217438], [0.35168391466140747, 0.1917300820350647, -0.03101682849228382, -0.13938632607460022], [-0.5624763369560242, -0.5363972187042236, -0.056842368096113205, -0.25590580701828003]], "bias": [0.502236545085907, -0.0033889287151396275, 0.2885487377643585, 0.06583141535520554, 0.2588382363319397, 0.4303057789802551, 0.5775712132453918, -0.4409530460834503, 0.4444240629673004, 0.4402882158756256, 0.038462892174720764, 0.017636774107813835, 0.21270403265953064, 0.4277832508087158, 0.6751840710639954, 0.3097986876964569, -0.26404428482055664, -0.07307519763708115, 0.05116242542862892, 0.6024424433708191, 0.5128028988838196, -0.24625955522060394, -0.23695610463619232, -0.3128223419189453, 0.045981112867593765, 0.4144366383552551, -0.21539658308029175, 0.28304073214530945, 0.21700717508792877, -0.28008121252059937, 0.569621741771698, 0.48485833406448364]}, {"weight": [[0.3537152409553528, 0.04761013016104698, 0.021112065762281418, 0.12518315017223358, 0.16735005378723145, 0.13642312586307526, 0.3505944311618805, 0.23205411434173584, 0.12653392553329468, -0.03823695704340935, -0.10188143700361252, -0.020571116358041763, -0.180096834897995, 0.013113966211676598, 0.36262843012809753, 0.21972326934337616, -0.18433475494384766, 0.17013703286647797, 0.18268628418445587, 0.05815380439162254, 0.181454598903656, -0.09476140886545181, 0.11342690885066986, -0.04476749524474144, 0.034712597727775574, 0.21173791587352753, -0.19418561458587646, -0.14134910702705383, 0.04326004162430763, -0.04156080633401871, -0.011942198500037193, 0.11216118931770325], [-0.29085198044776917, -0.23364178836345673, 0.18176782131195068, -0.6190305352210999, 0.04371658340096474, -0.1674080789089203, -0.0682045966386795, -0.2798299491405487, -0.16886547207832336, -0.3801300823688507, 0.12745578587055206, -0.0657847449183464, -0.2065855711698532, 0.058538734912872314, -0.3322603702545166, -0.7200448513031006, -0.17665493488311768, 0.044571664184331894, 0.17158427834510803, -0.15075495839118958, 0.057889603078365326, -0.21481353044509888, -0.8268688917160034, 0.09559904038906097, 0.21756841242313385, -0.11199875921010971, 0.015349958091974258, -0.5120234489440918, 0.04344002529978752, -0.36825820803642273, -0.36353588104248047, -0.45701223611831665], [0.10098447650671005, 0.04099062830209732, -0.027865372598171234, 0.08867373317480087, 0.06132446974515915, 0.04413541778922081, 0.015963874757289886, 0.9293467998504639, -0.26594963669776917, -0.04979730024933815, 0.25692808628082275, -0.0716351866722107, 0.005280159413814545, -0.17380280792713165, -0.1574120670557022, -0.04973480477929115, 0.0010766000486910343, 0.1688307821750641, 0.11173667013645172, 0.055953674018383026, 0.09664832055568695, 0.2896915078163147, 0.5294634699821472, 0.164771169424057, -0.18312497437000275, -0.09906520694494247, 0.028029434382915497, 0.15649306774139404, -0.0691704973578453, 0.26334187388420105, -0.16062723100185394, 0.1903918832540512], [0.06722177565097809, -0.136846661567688, -0.13038837909698486, -0.10880502313375473, -0.006506070960313082, 0.15117305517196655, 0.03465220704674721, -0.1447918862104416, -0.045798663049936295, -0.1546756476163864, -0.10350353270769119, 0.0063634151592850685, 0.08929818868637085, -0.05856551229953766, -0.04783085733652115, -0.00971624068915844, 0.13557898998260498, -0.0475279875099659, 0.05103146284818649, -0.035968881100416183, -0.10975471884012222, -0.1545502096414566, -0.09499756246805191, 0.09997312724590302, 0.14436285197734833, -0.117520771920681, -0.1751881092786789, -0.13324394822120667, 0.04612844064831734, -0.1289663463830948, -0.18434777855873108, -0.13200430572032928], [-0.1524810642004013, 0.1466532051563263, 0.034775108098983765, -0.5002641677856445, 0.11590822786092758, -0.16547654569149017, -0.02778858318924904, -0.5761179327964783, -0.10713911056518555, -0.4393607974052429, 0.18366639316082, -0.3234424591064453, -0.3684759736061096, -0.056538693606853485, -0.02273193560540676, -0.6525867581367493, -0.10199780762195587, 0.14536553621292114, 0.19773052632808685, -0.0017438804497942328, 0.03204561024904251, -0.10769753903150558, -0.804118812084198, -0.13203443586826324, 0.006383561063557863, -0.24252858757972717, 0.004215404391288757, -0.6377900838851929, -0.05171557143330574, -0.33314916491508484, -0.07702965289354324, 0.027600128203630447], [0.15327498316764832, -0.15440374612808228, 0.026404840871691704, 0.03586402162909508, 0.04002690687775612, 0.1394633650779724, 0.23706179857254028, 0.16265292465686798, 0.09319524466991425, 0.12328440696001053, 0.1696837991476059, 0.039988383650779724, -0.24204546213150024, 0.11663941293954849, 0.09095647186040878, 0.18587790429592133, 0.05013351887464523, -0.054542649537324905, 0.226893350481987, 0.3211899697780609, -0.09374310076236725, -0.08527874946594238, 0.07130762934684753, -0.13015812635421753, -0.18530529737472534, 0.02738647535443306, -0.19620676338672638, 0.07470221817493439, 0.039856430143117905, 0.007935183122754097, 0.13409940898418427, 0.30491921305656433], [-0.029975786805152893, -0.00025455281138420105, 0.19486291706562042, -0.431826651096344, -0.01690848544239998, -0.05677357316017151, -0.10146760940551758, -0.756542444229126, 0.17260004580020905, -0.16753503680229187, 0.07427780330181122, -0.11371201276779175, 0.26391541957855225, 0.1721893548965454, -0.12266559153795242, -0.023245424032211304, -0.37516912817955017, -0.06837540119886398, -0.04277123510837555, -0.19467793405056, 0.22721928358078003, -0.5661168098449707, -0.1730121523141861, 0.11042585968971252, 0.09984023123979568, -0.2908400297164917, -0.0677894875407219, 0.020647406578063965, 0.04638570919632912, -0.3156214654445648, -0.052275676280260086, -0.025941243395209312], [-0.22470121085643768, -0.08051786571741104, 0.1533290594816208, -0.141654834151268, -0.053825896233320236, -0.06778346002101898, -0.4950884282588959, -0.9715518951416016, 0.26430022716522217, -0.029197268187999725, 0.04549163579940796, -0.2778896987438202, 0.08657500147819519, -0.03167365863919258, -0.29918229579925537, -0.018037758767604828, -0.3024830222129822, 0.12556223571300507, 0.06285768002271652, -0.00499010132625699, 0.3264061212539673, 0.004583718720823526, 0.2102721929550171, -0.06945766508579254, 0.049815237522125244, -0.1576971411705017, -0.1078566387295723, 0.10745406895875931, -0.11213891953229904, 0.2068723738193512, -0.3580072224140167, 0.051907118409872055], [0.29419204592704773, 0.1333257555961609, -0.029605697840452194, -0.043988119810819626, -0.08709004521369934, 0.04961082339286804, 0.015105481259524822, -0.4824238717556, 0.04810522496700287, -0.0814516544342041, 0.19925732910633087, -0.05234436318278313, -0.13033755123615265, 0.15677300095558167, -0.05682389810681343, -0.5058666467666626, -0.20854716002941132, 0.1333911418914795, -0.09391795843839645, -0.077174112200737, -0.09043894708156586, -0.011131713166832924, -0.4922701418399811, 0.07274052500724792, 0.00925307534635067, -0.16830098628997803, -0.19766932725906372, -0.3254036009311676, 0.10876350104808807, -0.01970617100596428, 0.04500585421919823, 0.19899851083755493], [0.3250937759876251, -0.07447747141122818, -0.06994006782770157, 0.23799563944339752, 0.2297951877117157, -0.051856812089681625, 0.13705679774284363, 0.20065836608409882, 0.020457085222005844, -0.10995618253946304, 0.10097573697566986, -0.21055541932582855, -0.013806094415485859, 0.29659929871559143, 0.3546355962753296, 0.060719914734363556, -0.04496676102280617, -0.08980485796928406, 0.14551202952861786, 0.2669336199760437, -0.06404297053813934, 0.06756950169801712, 0.33184191584587097, 0.06992872059345245, 0.07768657058477402, -0.0830751359462738, -0.07779030501842499, 0.03271585330367088, 0.03333449736237526, 0.1419726014137268, 0.12912215292453766, 0.4539034068584442], [0.06447664648294449, -0.07987717539072037, -0.15942850708961487, 0.09465133398771286, 0.009776555001735687, 0.05973311513662338, 0.08025716990232468, 0.12801963090896606, 0.08125068247318268, 0.11764959245920181, -0.10539639741182327, -0.029871629551053047, -0.01748117059469223, 0.0069334376603364944, -0.12005430459976196, 0.10494306683540344, -0.2282693088054657, 0.012688100337982178, 0.1070210337638855, -0.10519997030496597, 0.03291145712137222, -0.031132670119404793, -0.17857645452022552, 0.10450860857963562, 0.09865818917751312, 0.11887549608945847, -0.06538285315036774, -0.09332146495580673, -0.25849249958992004, 0.005500292405486107, 0.0767887681722641, -0.2563092112541199], [-0.07219225913286209, -0.024221980944275856, 0.073207788169384, -0.6267394423484802, -0.15826798975467682, -0.04758235067129135, -0.06924133747816086, -0.8341618180274963, -0.0484200082719326, -0.34811171889305115, 0.14743654429912567, -0.004158152267336845, -0.1417044699192047, 0.0737348422408104, -0.01531208772212267, -0.20971527695655823, -0.1044042557477951, 0.033207815140485764, 0.09598754346370697, 0.1028333380818367, 0.3891846239566803, -0.039370354264974594, -0.6315872669219971, 0.05152576416730881, 0.15253321826457977, -0.1829797923564911, -0.24754981696605682, -0.043788135051727295, 0.17784836888313293, -0.19288088381290436, -0.19491054117679596, 0.07207838445901871], [-0.04079878702759743, -0.05044332891702652, -0.0014996819663792849, -0.13515712320804596, 0.16067643463611603, -0.006178242154419422, 0.0890117660164833, -0.05627288296818733, 0.006845094729214907, 0.0667022317647934, -0.07574989646673203, -0.044925641268491745, -0.14792415499687195, -0.036836087703704834, -0.1821805089712143, -0.1563805490732193, 0.14321425557136536, -0.1620500534772873, -0.046159353107213974, -0.08802186697721481, 0.10419559478759766, -0.016990939155220985, 0.10315010696649551, 0.13973966240882874, -0.0708903893828392, -0.05166761204600334, -0.10324212163686752, -0.16574786603450775, -0.12975119054317474, -0.16267064213752747, 0.020566007122397423, 0.13376395404338837], [0.003908128943294287, -0.12270018458366394, -0.11250398308038712, 0.11893349140882492, -0.18976745009422302, 0.03024192340672016, -0.2916906476020813, -0.47278526425361633, -0.054864320904016495, 0.28344976902008057, 0.036482010036706924, 0.07988165318965912, 0.062484897673130035, 0.05824081972241402, 0.18377916514873505, 0.12177815288305283, 0.18551164865493774, 0.07955187559127808, 0.05061531811952591, -0.12254743278026581, 0.03333412483334541, 0.33360612392425537, -0.12524570524692535, -0.014520305208861828, 0.08098536729812622, 0.08413732796907425, 0.037833552807569504, 0.0038106199353933334, -0.030063776299357414, 0.12660065293312073, -0.06581122428178787, 0.0025583135429769754], [-0.36574941873550415, 0.12559670209884644, 0.20803503692150116, 0.03407302498817444, -0.1905183643102646, -0.18784493207931519, -0.38468310236930847, -0.5158690214157104, 0.011864266358315945, -0.094169020652771, -0.04746291786432266, -0.1372559666633606, 0.0709533542394638, 0.12013155221939087, -0.05472113564610481, -0.40218210220336914, -0.09896430373191833, -0.14151719212532043, -0.062797412276268, -0.037148039788007736, 0.21463258564472198, 0.024937445297837257, -0.3087311387062073, 0.01342981867492199, 0.2944869101047516, -0.14943048357963562, -0.059539467096328735, 0.054722823202610016, -0.012429824098944664, 0.05598966032266617, -0.23622114956378937, 0.36367538571357727], [0.11682606488466263, 0.05119369179010391, -0.002629348076879978, 0.40016236901283264, 0.2429582178592682, 0.010252906009554863, 0.12310966104269028, 0.21290791034698486, 0.22483956813812256, 0.2666624188423157, 0.07028841972351074, -0.014470445923507214, 0.08070360869169235, 0.08594469726085663, 0.1856623739004135, 0.04610821232199669, -0.0827108696103096, 0.10237489640712738, -0.07903167605400085, 0.05580400675535202, 0.14702937006950378, -0.1413736790418625, 0.11515534669160843, 0.1555059403181076, -0.11089259386062622, 0.2557283043861389, -0.03365486115217209, 0.1469806432723999, 0.02961663529276848, -0.14319166541099548, 0.05704150348901749, 0.05798425152897835], [0.20959796011447906, -0.05538549646735191, -0.16506241261959076, 0.44947510957717896, 0.19499225914478302, 0.10348206013441086, 0.07626134157180786, 0.46676117181777954, 0.27642524242401123, 0.041645150631666183, 0.25932836532592773, -0.07880855351686478, -0.014594425447285175, 0.20305302739143372, 0.1556263118982315, -0.12213937193155289, 0.014121553860604763, -0.07828488200902939, 0.04629997909069061, 0.06476818025112152, 0.00798083283007145, -0.004844649229198694, 0.09374205768108368, 0.14656279981136322, -0.11631092429161072, -0.022153623402118683, 0.03669482469558716, -0.21707619726657867, -0.030760249122977257, -0.06575027853250504, -0.06336379051208496, 0.19968363642692566], [0.2372628152370453, 0.10201731324195862, 0.14895427227020264, -0.2898978590965271, -0.12353695929050446, -0.024051658809185028, -0.04904603958129883, -0.21491695940494537, 0.11289922893047333, 0.1116756945848465, 0.1775635927915573, -0.1706511676311493, 0.039382416754961014, 0.07560737431049347, 0.14579829573631287, 0.0069282823242247105, -0.16702863574028015, 0.050657354295253754, -0.09089331328868866, -0.0194508396089077, 0.2109452337026596, -0.024183593690395355, 0.11950894445180893, -0.08897098153829575, 0.0029018274508416653, 0.13455122709274292, -0.07045719772577286, -0.15791550278663635, 0.048781391233205795, -0.32178911566734314, 0.09598926454782486, -0.05361267179250717], [0.09157086908817291, -0.023844769224524498, 0.15982839465141296, -0.06894034892320633, -0.15695926547050476, -0.04359540343284607, -0.06749299168586731, -0.19951678812503815, -0.02888580411672592, -0.10289336740970612, -0.0527370348572731, -0.13853371143341064, -0.00984281301498413, 0.09147210419178009, -0.13185498118400574, -0.2268829345703125, -0.02313261479139328, -0.1541185975074768, -0.10776639729738235, -0.18917399644851685, -0.13464578986167908, 0.054345641285181046, -0.11889446526765823, 0.09632956981658936, 0.15400005877017975, -0.1586151123046875, 0.11284329742193222, 0.03744851425290108, -0.0014188948553055525, 0.08618897944688797, -0.037858135998249054, 0.045190297067165375], [0.00657566636800766, -0.13885851204395294, 0.077348992228508, -0.012843109667301178, -0.038205988705158234, -0.30204975605010986, -0.23402157425880432, -0.8227482438087463, -0.03367598354816437, -0.07278537005186081, -0.026980062946677208, -0.18678678572177887, 0.20905010402202606, 0.12910903990268707, -0.03738047927618027, -0.05662510171532631, 0.02055089920759201, 0.06765998154878616, -0.05858646705746651, 0.0828147754073143, 0.006609977688640356, -0.07996753603219986, -0.35544198751449585, 0.10672370344400406, 0.09461130201816559, -0.014505267143249512, 0.02128962241113186, 0.22011080384254456, 0.028462842106819153, -0.09747879952192307, -0.08072999119758606, -0.13934312760829926], [0.3114846348762512, 0.026725081726908684, 0.10304485261440277, -0.24782927334308624, -0.03142296150326729, -0.0284875500947237, -0.3203310966491699, -1.2617952823638916, -0.0821421667933464, -0.14000725746154785, 0.09091254323720932, 0.18171626329421997, 0.1293773502111435, 0.1797061413526535, -0.02800198271870613, -0.3584020435810089, -0.21911472082138062, -0.06806410104036331, -0.044167038053274155, -0.316771537065506, 0.19479744136333466, 0.16233733296394348, -0.8399665951728821, -0.054516758769750595, 0.13019703328609467, -0.3427048623561859, -0.19489185512065887, 0.05825728923082352, -0.026039062067866325, -0.05865143612027168, -0.06912500411272049, 0.09516631811857224], [0.0834510326385498, -0.0018442294094711542, -0.05765794962644577, 0.021561572328209877, 0.16526351869106293, 0.14482463896274567, 0.28692305088043213, 0.07425804436206818, 0.14857816696166992, 0.09117727726697922, 0.16376584768295288, -0.21457940340042114, -0.07925134152173996, 0.1720263510942459, 0.20908114314079285, 0.0545804463326931, -0.10390912741422653, -0.08716115355491638, 0.10579995810985565, 0.29650264978408813, 0.100703164935112, 0.045660119503736496, -0.11584953218698502, -0.045426420867443085, -0.23182350397109985, -0.11998720467090607, -0.03911753371357918, -0.19030626118183136, 0.11778756231069565, -0.39354798197746277, 0.21292218565940857, 0.2497362345457077], [0.004970369394868612, -0.02472970448434353, -0.1695244014263153, -0.10862734913825989, -0.04378888010978699, -0.043966859579086304, -8.342380169779062e-05, -0.01312476210296154, 0.04945600777864456, -0.11580505222082138, -0.05338948220014572, 0.08909237384796143, 0.007642004173249006, -0.058592624962329865, 0.05859488248825073, -0.1100098118185997, -0.002648623427376151, -0.02378547191619873, 0.021999724209308624, -0.05522237718105316, 0.06073521822690964, -0.044598110020160675, -0.13680140674114227, 0.1453930139541626, -0.1671006977558136, -0.07520619034767151, -0.01481884066015482, 0.04421794041991234, -0.12661585211753845, -0.06290772557258606, 0.08966019004583359, 0.12844295799732208], [0.33018285036087036, 0.11144577711820602, 0.2947781980037689, -0.03736499324440956, -0.06866344809532166, -0.049386799335479736, -0.18497948348522186, 0.05762457847595215, 0.3310648202896118, -0.2024785280227661, -0.0571524053812027, 0.10937373340129852, -0.05961369350552559, 0.20733380317687988, -0.27449342608451843, -0.3819083273410797, -0.3508273661136627, 0.01189726497977972, -0.3213261663913727, -0.43993547558784485, 0.30163538455963135, -0.1868080347776413, -0.11614406108856201, 0.0348336324095726, 0.20468249917030334, -0.5407480001449585, -0.06313927471637726, -0.2158377319574356, -0.008999464102089405, -0.13740769028663635, -0.5708728432655334, 0.16786791384220123], [0.2025662511587143, 0.12973982095718384, 0.050875503569841385, -0.20655633509159088, 0.1471186876296997, 0.11164936423301697, -0.17460481822490692, -0.7293871641159058, -0.10774974524974823, -0.6746029853820801, 0.1465476155281067, -0.234261617064476, -0.3711383044719696, 0.20791547000408173, -0.08973588049411774, -0.7804506421089172, -0.2535516023635864, -0.13329815864562988, 0.1988578736782074, -0.21116289496421814, -0.1656799167394638, 0.0826740488409996, -1.211472749710083, 0.1284307986497879, 0.028605882078409195, -0.330706387758255, 0.07531681656837463, -0.6186587810516357, -0.036414019763469696, -0.12749925255775452, -0.25884032249450684, 0.040872979909181595], [0.31915155053138733, 0.11215406656265259, -0.038268931210041046, 0.12026586383581161, 0.16175015270709991, 0.1027812659740448, 0.1668710708618164, 0.21446293592453003, 0.13251519203186035, 0.281922310590744, 0.0674593597650528, -0.10485327243804932, 0.03078952245414257, 0.15288178622722626, 0.1258518546819687, 0.23986561596393585, -0.14748020470142365, 0.004820086061954498, -0.06309915333986282, 0.2778722047805786, -0.08688026666641235, -0.016572287306189537, 0.1208914965391159, 0.11284569650888443, -0.10062997043132782, 0.34725886583328247, 0.014330386184155941, -0.051480263471603394, -0.12650907039642334, -0.10575497150421143, 0.2785774767398834, 0.331202894449234], [-0.05414256080985069, 0.10627752542495728, -0.15811635553836823, -0.03945889323949814, 0.11962252110242844, 0.208653524518013, 0.04780101776123047, 0.2852378189563751, 0.06905144453048706, 0.16615575551986694, 0.06291098147630692, 0.0436583049595356, -0.09097035229206085, 0.02229246124625206, 0.2728014290332794, 0.0739903450012207, -0.1718696802854538, -0.06994526833295822, 0.12514334917068481, 0.26301929354667664, -0.007217073813080788, -0.10833246260881424, 0.18508951365947723, 0.14350421726703644, -0.26972582936286926, 0.329885870218277, 0.03568322956562042, -0.11417854577302933, 0.15859229862689972, 0.09194163978099823, 0.23756398260593414, 0.28322887420654297], [-0.1164487972855568, -0.15623746812343597, -0.1031806692481041, -0.09138653427362442, -0.46300873160362244, 0.147882342338562, -0.15573927760124207, 0.027008838951587677, -0.12385202944278717, -0.1088937446475029, -0.1483352929353714, 0.03428666293621063, -0.057367268949747086, -0.08776688575744629, -0.2532810866832733, 0.000503311981447041, -0.042024463415145874, -0.00846901535987854, -0.014197087846696377, -0.015096308663487434, 0.05178986117243767, 0.04415598511695862, -0.15309764444828033, 0.011989451013505459, 0.0182647742331028, 0.041159313172101974, 0.1736719310283661, 0.13053889572620392, -0.1493573933839798, 0.1544584184885025, 0.01713312417268753, -0.09932106733322144], [0.013037770055234432, 0.14739802479743958, 0.17490682005882263, -0.450908362865448, 0.004896602127701044, -0.47801652550697327, -0.03800739347934723, -0.494221568107605, 0.18214204907417297, -0.34292706847190857, 0.16445185244083405, -0.16186471283435822, -0.0571182481944561, 0.08174584805965424, -0.05859857425093651, -0.1771577000617981, -0.5205735564231873, -0.007570768240839243, -0.04703845456242561, 0.03306102752685547, 0.1890760362148285, -0.30749884247779846, -0.32671624422073364, 0.14317846298217773, 0.1167207881808281, -0.12996181845664978, -0.30224478244781494, -0.17382465302944183, 0.08555738627910614, 0.10529628396034241, -0.1185089498758316, 0.32458025217056274], [0.13423678278923035, 0.04016351327300072, -0.1863706260919571, -0.1864069551229477, 0.21158674359321594, -0.19239352643489838, -0.03064456582069397, -0.11619433015584946, -0.09969417005777359, -0.01822139136493206, -0.014302005991339684, -0.06022394821047783, 0.039264071732759476, -0.2132687121629715, -0.15981684625148773, -0.16573649644851685, -0.19885294139385223, -0.11405903100967407, -0.08473814278841019, 0.103267140686512, -0.06582269817590714, -0.1999378204345703, -0.1527157723903656, 0.02591698244214058, -0.020346786826848984, 0.1268899291753769, 0.10193414986133575, -0.01582806371152401, -0.1583731770515442, -0.1345045268535614, 0.027799483388662338, -0.08201231062412262], [0.04213789850473404, 0.08794698864221573, 0.23733122646808624, 0.4806480407714844, -0.2274564504623413, -0.09214264899492264, 0.017048316076397896, -0.9028339385986328, 0.17629790306091309, -0.08427205681800842, -0.08328329771757126, -0.1582246869802475, 0.025112302973866463, 0.16915975511074066, -0.1368219554424286, -0.08622650057077408, -0.012832763604819775, 0.05002295970916748, 0.010390686802566051, -0.11343108862638474, 0.2560810148715973, -0.19061879813671112, -0.4111865162849426, -0.1497337818145752, 0.099118173122406, -0.2270849347114563, 0.024011870846152306, 0.10743562132120132, -0.033431630581617355, 0.12513911724090576, -0.3294472098350525, 0.17939606308937073], [0.07591965794563293, 0.1199076846241951, -0.028587013483047485, 0.07978980988264084, 0.11777487397193909, 0.060203250497579575, -0.14798080921173096, -0.012715072371065617, 0.029395410791039467, 0.14491689205169678, -0.04944933205842972, 0.1492309719324112, 0.22614923119544983, -0.09133315086364746, 0.13317425549030304, 0.25029444694519043, -0.10407142341136932, -0.0932634249329567, 0.02412545680999756, -0.1557900756597519, -0.12700322270393372, 0.2118583619594574, 0.011955990456044674, 0.10502627491950989, -0.2690031826496124, 0.0716346725821495, -0.03028811886906624, -0.10033220797777176, -0.20621009171009064, 0.10187418758869171, 0.15127792954444885, 0.23025546967983246]], "bias": [0.14852921664714813, 0.21329434216022491, -0.24209094047546387, -0.10073558241128922, -0.03380141407251358, 0.08931631594896317, 0.13057410717010498, 0.08852246403694153, 0.11707085371017456, 0.0939856618642807, -0.22759196162223816, 0.3240584135055542, -0.13369078934192657, -0.08709420263767242, 0.35488560795783997, 0.004193015396595001, 0.09848587214946747, 0.35267624258995056, 0.023464348167181015, 0.14447376132011414, 0.4055105745792389, 0.22532449662685394, -0.09281370043754578, -0.046018119901418686, 0.08468782156705856, 0.35050660371780396, 0.19129538536071777, 0.04802057147026062, 0.1130664199590683, -0.00916304998099804, 0.04977884888648987, -0.0691184401512146]}], "mlp2": [{"weight": [[-0.04388153925538063, 0.15292777121067047, 0.5793940424919128, -0.05192079395055771, -0.3907560706138611, 0.0720958262681961, -0.016324464231729507, -0.32451900839805603, 0.02211328037083149, -0.2998736500740051, 0.019771680235862732, -0.19247713685035706, 0.0692937821149826, 0.14307869970798492, -0.08059699088335037, 0.032599397003650665, -0.11249721050262451, -0.32868674397468567, 0.10072696954011917, 0.21076808869838715, 0.09952933341264725, 0.09536807984113693, 0.03304112330079079, -0.42307308316230774, 0.26096591353416443, -0.109052374958992, -0.285325825214386, -0.17820271849632263, 0.2393324077129364, 0.1779533177614212, -0.016870595514774323, -0.14612263441085815, -0.08995939046144485, -0.19335803389549255, 0.029808668419718742], [0.00939601194113493, 0.10878756642341614, 0.3908478617668152, 0.038861412554979324, -0.02144235000014305, -0.005961751099675894, -0.011161578819155693, -0.38986995816230774, -0.09393328428268433, -0.012379269115626812, 0.08317096531391144, -0.13175880908966064, -0.10992243140935898, 0.07093723118305206, -0.015659507364034653, 0.14707577228546143, -0.027124255895614624, -0.04759005829691887, 0.07577996701002121, 0.17959652841091156, 0.10071475058794022, -0.22513392567634583, -0.01195680070668459, -0.24337466061115265, -0.030146440491080284, -0.11846936494112015, -0.11370974034070969, -0.44088464975357056, 0.0866084024310112, 0.14285244047641754, 0.1540096402168274, 0.07646086812019348, -0.018605871126055717, -0.2396795153617859, 0.0550287701189518], [0.16706080734729767, -0.07753375917673111, -0.11332571506500244, -0.1977904886007309, 0.0426844097673893, -0.16551123559474945, -0.051985498517751694, 0.0790645033121109, -0.04200289770960808, -0.2231365293264389, -0.21772721409797668, 0.10231654345989227, -0.14145886898040771, -0.10101009160280228, -0.11277198046445847, -0.1721225380897522, 0.05991522595286369, -0.005616482347249985, -0.042617980390787125, -0.19302040338516235, -0.18983078002929688, -0.20108738541603088, 0.03512973338365555, -0.1655423492193222, -0.15704886615276337, 0.04318985342979431, -0.019410980865359306, -0.043821416795253754, 0.06030309572815895, 0.047014303505420685, -0.11309457570314407, 0.04585854336619377, -0.010385471396148205, 0.09778491407632828, -0.0712442547082901], [-0.11067827045917511, 0.14485616981983185, 0.5994890332221985, 0.08007605373859406, -0.16517490148544312, 0.0357302762567997, 0.050824981182813644, -0.37517136335372925, 0.14990520477294922, -0.029319941997528076, -0.01810707338154316, -0.1976803094148636, 0.1012149304151535, -0.032281193882226944, -0.19089984893798828, -0.13466481864452362, -0.15503717958927155, -0.20742706954479218, 0.10876837372779846, 0.21601533889770508, -0.038158781826496124, -0.1097688153386116, 0.01774071902036667, -0.24982880055904388, 0.2337791472673416, -0.11151768267154694, -0.4548891484737396, -0.3728870451450348, 0.11429119110107422, -0.1071595773100853, -0.11716117709875107, -0.17694824934005737, -0.00774793978780508, -0.140851691365242, -0.15728501975536346], [-0.06134976074099541, 0.062071941792964935, 1.0423623323440552, 0.18560636043548584, -0.7823643684387207, 0.0684172660112381, 0.14568960666656494, -0.47499969601631165, 0.1616836041212082, 0.02819325402379036, -0.07253091782331467, -0.0278189554810524, 0.01715453341603279, -0.03869275748729706, 0.0588831752538681, 0.07326817512512207, -0.08962162584066391, -0.4579414427280426, 0.04909273236989975, 0.1450786590576172, 0.04195639491081238, 0.10060910880565643, -0.08509974181652069, -0.2236143797636032, 0.08418511599302292, 0.17483459413051605, -0.16590574383735657, -0.5960933566093445, 0.11673048883676529, -0.030207544565200806, -0.10261566936969757, -0.2328573316335678, -0.014644692651927471, -0.42950868606567383, 0.08186396956443787], [0.5362262725830078, 0.6247140169143677, -0.2586930990219116, 0.018499329686164856, 0.0523209311068058, -0.11210033297538757, 0.0019947942346334457, -0.00028524233493953943, 0.14525732398033142, -0.1099044606089592, -0.21727892756462097, -0.1586567461490631, 0.08605440706014633, -0.08050365000963211, -0.25118502974510193, 0.0836683064699173, -0.10588835179805756, 0.11356565356254578, 0.0028206189163029194, 0.19511236250400543, 0.08846034109592438, -0.022781306877732277, -0.10773445665836334, 0.12152789533138275, -0.015130603685975075, 0.012612788937985897, -0.03177424892783165, 0.32070839405059814, 0.14780700206756592, -0.03281198441982269, -0.14367474615573883, -0.1894889771938324, 0.03159196674823761, -0.24607524275779724, -0.17918771505355835], [-0.24625077843666077, -0.12686499953269958, -0.7698700428009033, 0.07524490356445312, 0.11753483861684799, -0.08041154593229294, 0.045304957777261734, 0.09533993899822235, 0.32091671228408813, 0.17148292064666748, 0.0769696831703186, 0.03805781528353691, 0.18305456638336182, 0.07112281024456024, 0.24751992523670197, -0.1654166877269745, -0.007435348816215992, -0.0004595486680045724, 0.27778562903404236, 0.10254424065351486, 0.12845967710018158, -0.037251751869916916, 0.10528936237096786, 0.5741806030273438, 0.2546500563621521, -0.01601562276482582, 0.4680996537208557, 0.21369756758213043, 0.30850842595100403, 0.08164692670106888, -0.06868167221546173, 0.21609292924404144, 0.05306931957602501, 0.17730043828487396, 0.09869692474603653], [-0.3537961542606354, -0.09800919890403748, -0.6912001967430115, 0.21695120632648468, 0.1384701430797577, -0.2594769597053528, 0.09110064059495926, 0.07266717404127121, 0.2566041052341461, -0.006573591381311417, 0.01424331869930029, -0.06970741599798203, 0.2608718276023865, -0.014715268276631832, 0.241366446018219, -0.14516523480415344, -0.13267694413661957, 0.3092726469039917, 0.13939037919044495, 0.10910864174365997, 0.2237291932106018, -0.11841527372598648, 0.17387650907039642, 0.5374589562416077, 0.038705430924892426, -0.0862581804394722, 0.5895163416862488, 0.22310204803943634, 0.16372042894363403, 0.04500924050807953, -0.09411370754241943, 0.07104067504405975, -0.13938435912132263, 0.1276826113462448, 0.11550822854042053], [-0.15181109309196472, -0.10385538637638092, -0.6919782757759094, 0.1952362209558487, 0.13804972171783447, -0.29975858330726624, -0.004621728789061308, 0.21268007159233093, 0.23620854318141937, 0.0656973272562027, 0.13355952501296997, 0.21809259057044983, 0.3423227369785309, 0.04521718993782997, 0.1770167499780655, 0.12251778692007065, -0.1549430787563324, 0.3095296025276184, 0.08377231657505035, 0.1909455806016922, 0.21800044178962708, 0.1886996030807495, -0.032633837312459946, 0.407598614692688, 0.17765530943870544, -0.1201726570725441, 0.46902453899383545, -0.037130989134311676, 0.17668308317661285, 0.09549103677272797, -0.06759654730558395, 0.17732413113117218, 0.13288316130638123, 0.016546979546546936, -0.1282215565443039], [0.028447376564145088, -0.0684792548418045, 0.7175493836402893, 0.07832247763872147, -0.31962859630584717, 0.1542212963104248, -0.07175295054912567, -0.12551349401474, -0.03692276403307915, -0.16394393146038055, -0.05499225854873657, -0.16648992896080017, -0.00858994759619236, 0.06804891675710678, -0.17109407484531403, 0.041446615010499954, -0.03407949581742287, -0.3853675127029419, 0.1501505970954895, 0.13383574783802032, 0.26887479424476624, -0.1186913400888443, -0.03365291282534599, -0.10418682545423508, 0.256061315536499, -0.09798260033130646, -0.42856812477111816, -0.26435375213623047, 0.03134947642683983, 0.08117768168449402, -0.1002715453505516, -0.08347585797309875, -0.0479176826775074, -0.3850307762622833, -0.20291593670845032], [-0.18929485976696014, -0.21862268447875977, -0.7769304513931274, 0.10193809121847153, 0.1022932305932045, -0.17760805785655975, -0.007566086482256651, -0.04749126732349396, 0.09729978442192078, 0.257968544960022, 0.2235262393951416, 0.05805753171443939, 0.20929892361164093, 0.05610578507184982, 0.16182740032672882, -0.12494935840368271, -0.0089771943166852, 0.15139925479888916, 0.02583753503859043, 0.10796481370925903, 0.3040291666984558, 0.05151959881186485, 0.14177067577838898, 0.3861645758152008, 0.23072248697280884, -0.1314128190279007, 0.5188209414482117, 0.12441855669021606, 0.3097042441368103, 0.20556342601776123, -0.03483845293521881, -0.011025937274098396, -0.13913723826408386, 0.053167082369327545, 0.14009706676006317], [0.10781165957450867, 0.01964220218360424, 0.7864192724227905, 0.22776152193546295, -0.5005307793617249, 0.12402353435754776, -0.08616098761558533, -0.30525416135787964, 0.14769545197486877, -0.20649267733097076, 0.05932376906275749, 0.05707526579499245, 0.3035650849342346, -0.015434503555297852, -0.298574835062027, -0.11588391661643982, 0.1457992047071457, -0.4966450333595276, 0.14644764363765717, 0.14557455480098724, 0.04829937964677811, -0.08024665713310242, 0.23563680052757263, -0.3096610903739929, -0.01802896335721016, 0.021571245044469833, -0.548763632774353, -0.3203047513961792, -0.027386054396629333, 0.24722830951213837, 0.004677298944443464, -0.15047404170036316, 0.13344906270503998, -0.348550945520401, -0.12145611643791199], [-0.03149562329053879, -0.026905270293354988, 0.9789238572120667, -0.03636307269334793, -0.12978342175483704, -0.06205320358276367, -0.007090285420417786, -0.4119037091732025, 0.25566405057907104, 0.07341215759515762, -0.2615637481212616, -0.2136651873588562, -0.1004645973443985, -0.10047721117734909, 0.2104865312576294, -0.05691377818584442, -0.20306560397148132, -0.4108453094959259, 0.0704270452260971, 0.21962125599384308, -0.09467491507530212, -0.035761378705501556, -0.26641809940338135, 0.00810218695551157, 0.12932787835597992, -0.116826631128788, -0.04728889837861061, -0.7128301858901978, 0.14540070295333862, 0.04603582248091698, 0.17785359919071198, -0.10604634881019592, -0.025914838537573814, -0.16847044229507446, -0.3658503592014313], [-0.48551732301712036, -0.12304908782243729, -0.6155732870101929, 0.20882105827331543, 0.040430594235658646, -0.11080608516931534, -0.08878675103187561, 0.16964615881443024, 0.13506491482257843, 0.27493974566459656, 0.18937084078788757, 0.11942348629236221, 0.22047221660614014, 0.0809108167886734, 0.09972205013036728, -0.07987446337938309, 0.03227600082755089, 0.20545849204063416, 0.32461872696876526, 0.19591596722602844, 0.07218985259532928, -0.08255952596664429, 0.08670538663864136, 0.4859398603439331, 0.13457812368869781, -0.01031597051769495, 0.6069145798683167, 0.13243813812732697, 0.2289814054965973, -0.04130396991968155, 0.1000385731458664, 0.22304989397525787, 0.05260847881436348, 0.05310188606381416, 0.09670323133468628], [-0.3156285881996155, -0.9795286655426025, -0.8208200335502625, 0.007659424562007189, 0.2801003158092499, 0.09692535549402237, -0.14219292998313904, -0.034193359315395355, -0.021877441555261612, -0.0016447891248390079, 0.08456895500421524, -0.02313217893242836, -0.05596349388360977, 0.239479199051857, 0.24265412986278534, -0.00795159675180912, -0.059978507459163666, -0.0005292182322591543, -0.05146952345967293, -0.14327263832092285, -0.15297329425811768, 0.12888555228710175, -0.011262278072535992, 0.4977388381958008, -0.15958350896835327, 0.1430394947528839, 0.5418496131896973, 0.23096901178359985, 0.04217269644141197, 0.031028855592012405, 0.025193314999341965, 0.18891489505767822, -0.04735760763287544, 0.03152964264154434, -0.0401812382042408], [-0.21829017996788025, -0.07818823307752609, -0.6422412991523743, 0.18071503937244415, 0.2581271231174469, -0.1611586958169937, 0.028814012184739113, -0.055739086121320724, 0.11571578681468964, -0.02715032920241356, 0.10266085714101791, 0.11251652240753174, 0.21572960913181305, -0.10179676860570908, 0.21169421076774597, 0.011526433750987053, -0.021173126995563507, 0.03324514627456665, 0.1702750325202942, 0.12224327772855759, 0.1422262191772461, 0.12115839868783951, 0.03732706978917122, 0.6638554334640503, 0.29661107063293457, -0.17194914817810059, 0.3562566637992859, 0.23528076708316803, 0.18994802236557007, 0.10689503699541092, 0.06915076076984406, 0.19611342251300812, 0.14985108375549316, 0.10650496929883957, 0.14685377478599548]], "bias": [0.16002565622329712, 0.21515628695487976, -0.07318610697984695, 0.2933065593242645, 0.42131659388542175, 0.08316272497177124, 0.19838586449623108, 0.2585492730140686, 0.14056189358234406, 0.1669462025165558, 0.21882131695747375, 0.12843047082424164, 0.25188151001930237, 0.0518200621008873, -0.03820224478840828, 0.25528445839881897]}, {"weight": [[0.6339302659034729, 0.3917914927005768, -0.004992041736841202, 0.5689588189125061, 0.761868417263031, -0.6906295418739319, -0.2793748378753662, -0.34105509519577026, -0.3622194826602936, 0.5790116190910339, -0.30785831809043884, 0.6654348373413086, 0.6951313018798828, -0.16933231055736542, -0.25937339663505554, -0.23521384596824646]], "bias": [-0.2467215359210968]}]}