{"max_k": 50, "mlp1": [{"weight": [[-0.09692520648241043, 0.15352201461791992, 0.34191790223121643, 0.2048506885766983, 0.3042091727256775, -0.132567897439003, -0.012373071163892746], [0.02612251415848732, 0.05322033911943436, 0.3702423572540283, -0.24567773938179016, 0.22576217353343964, 0.34746676683425903, -0.4088037312030792], [0.16558511555194855, 0.38857588171958923, -0.04947129264473915, -0.2753327190876007, -0.1711135357618332, -0.20219935476779938, 0.2835911810398102], [-0.03444771468639374, 0.025048168376088142, 0.3791390657424927, -0.24939784407615662, -0.11637340486049652, -0.17039160430431366, -0.4822448492050171], [-0.12345566600561142, 0.06569057703018188, 0.5556879639625549, -0.043836936354637146, -0.08651238679885864, -0.08036691695451736, 0.22869472205638885], [0.1806555837392807, -0.0016590578015893698, 0.4378179609775543, 0.37498706579208374, -0.07803254574537277, 0.1509285569190979, 0.0408414751291275], [0.09762866050004959, 0.20212118327617645, -0.12065920978784561, -0.10295820981264114, -0.1106104627251625, -0.1162993460893631, 0.21076425909996033], [0.0679047703742981, -0.6854236125946045, -0.3771960437297821, -0.6044684648513794, 0.014650385826826096, -0.3993031978607178, 0.10306701064109802], [-0.2704222500324249, -0.40152889490127563, -0.07739723473787308, -0.1663515716791153, 0.27121585607528687, -0.16220851242542267, -0.018341371789574623], [0.022182151675224304, 0.03472662717103958, 0.219742089509964, -0.05298588052392006, -0.5334087610244751, 0.046588510274887085, 0.12096410244703293], [0.19860105216503143, -0.28026312589645386, 0.1711694300174713, -0.45226922631263733, 0.10811563581228256, 0.6792984008789062, 0.03916998207569122], [-0.20702141523361206, -0.16140609979629517, 0.0013019602047279477, 0.35124316811561584, 0.25032126903533936, -0.4306604266166687, -0.4285386800765991], [-0.022188112139701843, -0.24922877550125122, 0.047537911683321, 0.7035017013549805, 0.22441452741622925, -0.10969876497983932, -0.07868722081184387], [-0.00502668134868145, 0.21521547436714172, 0.05621679872274399, -0.3248720169067383, 0.35359445214271545, 0.4115622341632843, -0.1229051798582077], [-0.14464469254016876, -0.7899253964424133, -0.5213810801506042, -0.24919982254505157, 0.032316237688064575, -0.6479067802429199, 0.06430704146623611], [0.08113604784011841, 0.045463114976882935, 0.30095627903938293, 0.055150408297777176, -0.21395722031593323, 0.49691182374954224, -0.32983148097991943], [0.09316889196634293, 0.33109140396118164, -0.5394083261489868, 0.46738195419311523, -0.3661915063858032, 0.09502006322145462, 0.05711699277162552], [-0.025331342592835426, 0.16780300438404083, 0.13774774968624115, 0.1494368016719818, 0.039084866642951965, 0.34333336353302, 0.2242143750190735], [0.056472934782505035, -0.22504177689552307, 0.01531318947672844, -0.29319000244140625, -0.34211301803588867, 0.15959161520004272, -0.34376591444015503], [0.16212351620197296, -0.03060736693441868, 0.5771739482879639, 0.28121599555015564, -0.016984669491648674, -0.2046719640493393, 0.1010543704032898], [0.03224816545844078, 0.18163244426250458, 0.04625704139471054, 0.42872416973114014, -0.12792399525642395, -0.02607911266386509, -0.6476507782936096], [-0.07683549076318741, 0.10374144464731216, 0.1596348136663437, -0.2085254192352295, -0.4226418435573578, -0.2844896614551544, 0.026040134951472282], [-0.15582597255706787, -0.1556369960308075, 0.04892471432685852, 0.2647949457168579, 0.2691290080547333, 0.3411675691604614, 0.33496972918510437], [0.2015143483877182, 0.2243645191192627, -0.3686079978942871, 0.14345358312129974, 0.04932529851794243, 0.3018086850643158, -0.19001466035842896], [0.18325823545455933, -0.15184903144836426, 0.3473831117153168, 0.6241352558135986, -0.042886149138212204, -0.37633129954338074, 0.1607842743396759], [0.011869541369378567, -0.10366103798151016, 0.2855767607688904, -0.13290244340896606, 0.05725417286157608, -0.12171555310487747, 0.26245996356010437], [-0.003130320692434907, -0.02730736695230007, -0.2682367265224457, -0.14079050719738007, 0.20229509472846985, 0.525629460811615, 0.16059227287769318], [-0.02635321207344532, 0.0046048942022025585, 0.5008206367492676, 0.12880653142929077, 0.26858049631118774, -0.18918749690055847, -0.13718663156032562], [-0.12716007232666016, -0.23451459407806396, 0.2778635621070862, 0.21344514191150665, -0.01264402735978365, -0.002231243532150984, 0.2355823963880539], [0.17068827152252197, 0.3340558111667633, -0.2830261290073395, 0.45688876509666443, 0.036575231701135635, 0.38352862000465393, -0.01926415227353573], [-0.004762908909469843, 0.15700110793113708, 0.45542070269584656, 0.11441949009895325, -0.023540135473012924, -0.11068981140851974, 0.1451779156923294], [0.10212281346321106, 0.2285778671503067, 0.3933325707912445, 0.09913870692253113, 0.151889830827713, -0.14130668342113495, 0.14153040945529938]], "bias": [-0.21292676031589508, 0.02425829879939556, 0.32346075773239136, 0.15430255234241486, -0.04462656006217003, 0.09035129100084305, 0.5600355863571167, 0.16642436385154724, -0.3131116032600403, 0.005359105300158262, 0.05117708817124367, 0.030496886000037193, 0.19947396218776703, -0.2500576674938202, 0.16358448565006256, 0.2930559515953064, -0.0867668017745018, 0.23326502740383148, -0.22682853043079376, -0.26478058099746704, -0.08927780389785767, 0.0783362090587616, 0.4134187400341034, 0.5354037284851074, 0.07471534609794617, 0.0031052008271217346, 0.37082046270370483, -0.18144063651561737, -0.21832707524299622, -0.004063611384481192, -0.17520877718925476, 0.06488814204931259]}, {"weight": [[-0.09284742921590805, 0.16135121881961823, 0.0043185860849916935, 0.20424941182136536, 0.13815893232822418, -0.055207062512636185, -0.13310080766677856, -0.10734172910451889, 0.11233238130807877, 0.08744285255670547, 0.14966416358947754, -0.14344939589500427, 0.021615099161863327, -0.16031190752983093, -0.20560511946678162, 0.09172999113798141, -0.15371999144554138, -0.09361853450536728, -0.22411002218723297, 0.0318048857152462, 0.10592643916606903, -0.08894391357898712, 0.1259951889514923, 0.11320073157548904, -0.016703227534890175, -0.12126727402210236, 0.1891215294599533, -0.1634177565574646, 0.0468389168381691, 0.053994182497262955, -0.061323534697294235, 0.002293153665959835], [-0.0027953344397246838, 0.11983396112918854, -0.132358580827713, 0.031316738575696945, -0.10977098345756531, 0.20501968264579773, -0.263337641954422, -0.25729885697364807, -0.009935742244124413, -0.1313575804233551, -0.08214128762483597, 0.2084609568119049, -0.08975852280855179, -0.07212907820940018, -0.39520177245140076, -0.05004693567752838, 0.011943797580897808, 0.11279075592756271, -0.024036891758441925, 0.2936016917228699, -0.13623160123825073, -0.29519084095954895, -0.026194043457508087, -0.20315642654895782, 0.005270480643957853, 0.09345231205224991, -0.32814183831214905, 0.05080651864409447, -0.02050880342721939, -0.060951001942157745, 0.06363798677921295, 0.23220714926719666], [-0.08987165242433548, -0.15744735300540924, -0.24097660183906555, -0.052313968539237976, -0.21354910731315613, -0.06917880475521088, -0.10047061741352081, 0.2043829709291458, 0.1820116639137268, 0.17335087060928345, 0.01042255014181137, 0.009763245470821857, 0.08739681541919708, -0.10838577896356583, 0.18811020255088806, -0.18698494136333466, 0.23789922893047333, -0.05528365448117256, -0.20919883251190186, -0.13518120348453522, 0.21850965917110443, -0.026307325810194016, -0.12863518297672272, 0.11089015752077103, -0.1089123860001564, -0.095242939889431, 0.026251204311847687, -0.3586242198944092, -0.1521446257829666, -0.05097103491425514, 0.03402849659323692, -0.0020945598371326923], [-0.0551421158015728, -0.15298601984977722, -0.02825714461505413, -0.09932123124599457, -0.1306971311569214, -0.1921563595533371, -0.010911623947322369, 0.21383249759674072, -0.040136486291885376, 0.13930658996105194, -0.20424942672252655, -0.07042685151100159, 0.03762365132570267, -0.05895308405160904, 0.2786440849304199, -0.224007248878479, 0.1514291763305664, -0.17005962133407593, -0.08983219414949417, 0.08810597658157349, 0.04273514077067375, 0.010022942908108234, -0.12800374627113342, 0.16316719353199005, 0.007467272691428661, -0.09525682777166367, -0.18944630026817322, -0.5571916103363037, 0.16923436522483826, 0.1122768446803093, 0.013751554302871227, -0.19805432856082916], [0.11385485529899597, -0.25353124737739563, -0.13362251222133636, -0.1006561741232872, -0.03664363548159599, 0.14575472474098206, 0.05330837517976761, 0.012814397923648357, -0.10636927932500839, 0.06245485693216324, -0.1418541520833969, 0.14732451736927032, 0.2710702419281006, -0.08646553754806519, -0.1601426601409912, -0.10093406587839127, -0.22481036186218262, -0.10535380989313126, -0.12173553556203842, 0.028497107326984406, -0.050299156457185745, -0.2420952320098877, 0.1413213610649109, 0.05136959254741669, 0.23883754014968872, -0.08710281550884247, -0.15340982377529144, -0.019833236932754517, 0.030973978340625763, 0.12046104669570923, -0.0006577902822755277, 0.1765562742948532], [0.1354864537715912, -0.0576687753200531, 0.019594866782426834, 0.03770888224244118, 0.06729038804769516, 0.1410197913646698, -0.0389125719666481, -0.27401280403137207, -0.1115998700261116, -0.15834644436836243, -0.2640179991722107, -0.06900437921285629, 0.21566364169120789, 0.07225774228572845, -0.3583856225013733, -0.12881721556186676, 0.028170809149742126, 0.14230363070964813, -0.22547566890716553, 0.17336316406726837, -0.31358328461647034, -0.10852621495723724, 0.05172526091337204, -0.056568630039691925, 0.2591891884803772, -0.05636650323867798, -0.20729483664035797, 0.0015571510884910822, 0.05602633208036423, 0.04999978095293045, 0.005505839362740517, 0.024821516126394272], [0.14309479296207428, -0.18230555951595306, -0.020833950489759445, 0.20955359935760498, 0.1799595206975937, 0.13563020527362823, -0.13981112837791443, -0.3238794803619385, -0.11973129212856293, -0.04299040138721466, -0.342399001121521, -0.05357269197702408, 0.04431261867284775, -0.08792891353368759, -0.3895415961742401, 0.049876175820827484, -0.4009977877140045, 0.04722465202212334, -0.1747802197933197, 0.24864540994167328, -0.07944280654191971, -0.021762114018201828, -0.00840376690030098, -0.13768039643764496, 0.11661691218614578, 0.14659827947616577, -0.3120870590209961, 0.012604600749909878, 0.054471004754304886, -0.19351761043071747, 0.05795341730117798, 0.11331669986248016], [0.11912799626588821, 0.14704807102680206, 0.03741384670138359, 0.09049475193023682, 0.007963975891470909, -0.09257538616657257, 0.20950008928775787, -0.2788938283920288, -0.060659147799015045, -0.3320346474647522, -0.041470639407634735, -0.02973918244242668, 0.22136995196342468, -0.05230835825204849, -0.34102553129196167, -0.15046872198581696, 0.09251083433628082, -0.07336302101612091, 0.022749993950128555, -0.19930966198444366, -0.38162943720817566, -0.2223428189754486, 0.024337701499462128, -0.12326347082853317, 0.18085156381130219, -0.09752139449119568, 0.09411030262708664, -0.0017983231227844954, 0.10703931003808975, -0.07666388899087906, -0.23906747996807098, 0.07510677725076675], [-0.025750821456313133, -0.11255586892366409, -0.14873933792114258, -0.16652603447437286, 0.097416952252388, 0.07724644988775253, 0.024212071672081947, -0.08995060622692108, -0.016915805637836456, -0.23015587031841278, -0.038073956966400146, 0.1461399644613266, 0.042579054832458496, -0.11606334894895554, -0.3225533962249756, -0.13457384705543518, 0.1941123604774475, 0.10133359581232071, -0.2033192217350006, 0.01747043989598751, -0.1710129678249359, -0.053894706070423126, 0.03829206898808479, -0.22236481308937073, 0.26221930980682373, 0.11057986319065094, -0.1701166033744812, 0.09001719206571579, 0.0398252010345459, 0.1957085132598877, -0.08471570909023285, 0.22222024202346802], [0.14090487360954285, -0.02240164950489998, -0.07841868698596954, 0.1059051901102066, -0.05663973093032837, 0.042351871728897095, -0.11104416847229004, -0.21792061626911163, -0.023658854886889458, -0.6757290363311768, -0.22060871124267578, 0.09506823122501373, 0.006769626867026091, -0.14475929737091064, -0.08143983781337738, -0.15729601681232452, 0.04136442393064499, -0.050758395344018936, -0.07788052409887314, 0.16865311563014984, 0.15700118243694305, -0.13409249484539032, -0.11929407715797424, -0.1837286800146103, 0.10752507299184799, -0.03074873425066471, -0.25272539258003235, 0.13860401511192322, 0.06452978402376175, 0.0346461646258831, 0.2096664011478424, 0.19292451441287994], [0.06428228318691254, -0.08076060563325882, -0.0900171548128128, -0.0020484712440520525, 0.17477156221866608, 0.15369458496570587, -0.15503458678722382, -0.21984636783599854, 0.1653359979391098, 0.03921762853860855, -0.11095817387104034, 0.045620378106832504, -0.04740497097373009, -0.10659804195165634, -0.3682752251625061, -0.22187639772891998, -0.23758022487163544, -0.03446103259921074, 0.2295873761177063, 0.148360937833786, 0.10976774990558624, 0.34711164236068726, 0.15353551506996155, 0.06890985369682312, 0.18482469022274017, -0.12012336403131485, -0.15988695621490479, 0.23010922968387604, 0.09242786467075348, 0.10664967447519302, 0.059431273490190506, -0.014595003798604012], [0.035163089632987976, -0.1594153195619583, 0.004089847207069397, -0.3664383590221405, 0.07392546534538269, 0.06785719096660614, -0.03708872199058533, -0.21870030462741852, -0.10148462653160095, -0.18325848877429962, -0.2578684091567993, 0.1791268140077591, 0.12231870740652084, -0.008768669329583645, -0.3238734006881714, -0.1429317742586136, 0.056615199893713, 0.004224471282213926, 0.30594635009765625, 0.10473141074180603, 0.009917543269693851, -0.5878570079803467, 0.002670218702405691, 0.07269775122404099, 0.1300780028104782, 0.056116461753845215, -0.3711303770542145, 0.02466229721903801, 0.19705398380756378, -0.035804979503154755, 0.15144500136375427, 0.10678707808256149], [0.06903642416000366, -0.2669445872306824, -0.1417587548494339, 0.05221627280116081, -0.13440532982349396, 0.007283809594810009, 0.33281585574150085, -0.03511447831988335, -0.14494189620018005, 0.0937558189034462, -0.5434644818305969, 0.1638316959142685, 0.31255996227264404, 0.0763416737318039, -0.06257636845111847, 0.13996629416942596, 0.12579485774040222, -0.10923197120428085, -0.21360743045806885, 0.06914934515953064, 0.07178336381912231, 0.05701328068971634, 0.23970092833042145, 0.023897726088762283, 0.03575833514332771, 0.043549470603466034, -0.13870179653167725, -0.13749510049819946, -0.1956598162651062, -0.12306657433509827, -0.008875670842826366, -0.1897227168083191], [0.2251310795545578, 0.11452475935220718, -0.03541828319430351, 0.11788450926542282, -0.06711403280496597, 0.10628939419984818, -0.2977273464202881, -0.13606762886047363, -0.23802517354488373, 0.08105719834566116, -0.1397521197795868, -0.10578934848308563, 0.018020816147327423, -0.12310190498828888, -0.2564692497253418, 0.26398518681526184, -0.16253773868083954, -0.057371631264686584, 0.13985121250152588, 0.08772855997085571, 0.057019609957933426, 0.23569728434085846, 0.17055056989192963, 0.07405124604701996, 0.05891762673854828, -0.13961751759052277, 0.13760948181152344, 0.022301629185676575, 0.13577339053153992, -0.10292230546474457, 0.13490548729896545, -0.01298023946583271], [0.22454442083835602, -0.15867631137371063, -0.15161672234535217, 0.19145740568637848, 0.1005329042673111, 0.2186375856399536, 0.0565660260617733, -0.20588788390159607, 0.059221796691417694, -0.0654182955622673, -0.02490209974348545, 0.005727081559598446, 0.017606539651751518, 0.06624126434326172, -0.46695682406425476, 0.03941807150840759, -0.2385038584470749, 0.042829111218452454, -0.3083384335041046, 0.2998255789279938, -0.12104488164186478, 0.10086041688919067, 0.025073735043406487, -0.07077373564243317, 0.06427323073148727, 0.047996457666158676, -0.14610300958156586, -0.10185930132865906, -0.2067520022392273, -0.05306587740778923, 0.2083093523979187, 0.11781801283359528], [0.04426226764917374, -0.0886230394244194, -0.12598581612110138, 0.02689194492995739, 0.07931054383516312, 0.2599208950996399, 0.03580503165721893, -0.10967133939266205, -0.08143069595098495, -0.26849326491355896, -0.2595859169960022, 0.10773766040802002, 0.18137674033641815, 0.017901353538036346, -0.447902649641037, 0.007245825603604317, -0.23973043262958527, 0.037197958678007126, 0.03427497297525406, 0.34266847372055054, -0.15189574658870697, 0.06247890740633011, -0.17893944680690765, -0.08017458021640778, 0.1287391632795334, 0.046097125858068466, -0.2264779955148697, 0.16080179810523987, 0.15709148347377777, -0.1538766473531723, 0.25182512402534485, 0.10610131174325943], [-0.09540365636348724, 0.15393145382404327, 0.04805387556552887, 0.016433846205472946, 0.21707363426685333, 0.2390989512205124, -0.0518767423927784, -0.22528450191020966, -0.047679077833890915, -0.009043307043612003, -0.03525068238377571, 0.057454273104667664, 0.21269948780536652, 0.11062091588973999, 0.1254732459783554, 0.2208188772201538, -0.291515588760376, -0.07535172998905182, -0.08690084517002106, 0.17239180207252502, 0.14704203605651855, 0.09337522834539413, 0.03862979635596275, 0.10361835360527039, -0.06082255765795708, -0.10621386021375656, -0.1041366383433342, 0.283455491065979, -0.06679004430770874, -0.11202206462621689, 0.1473342925310135, -0.10085544735193253], [0.052835311740636826, 0.10230778902769089, 0.03312963247299194, -0.06642378121614456, -0.05624130368232727, -0.11949704587459564, -0.05189799889922142, -0.3247338831424713, -0.10359454154968262, -0.5209701061248779, -0.01609659008681774, -0.12232756614685059, 0.20966199040412903, -0.14109857380390167, -0.15541620552539825, -0.18521960079669952, -0.031212355941534042, 0.06807440519332886, 0.20813925564289093, 0.27499181032180786, 0.024951420724391937, 0.03446945920586586, -0.04751155152916908, -0.0440669059753418, 0.1330268234014511, -0.07632388919591904, -0.3656187355518341, 0.2679799497127533, -0.010918538086116314, -0.08528757840394974, 0.047573577612638474, 0.16338278353214264], [-0.13672691583633423, 0.009470613673329353, -0.04588858038187027, -0.004710563458502293, 0.004659723024815321, -0.0349116213619709, -0.17379696667194366, -0.045356933027505875, -0.042791176587343216, 0.26724913716316223, -0.08640074729919434, -0.07283108681440353, -0.25400111079216003, 0.002025921829044819, 0.05143604427576065, -0.03681420162320137, 0.007874881848692894, -0.07810422778129578, -0.1023697555065155, 0.1476772278547287, 0.05805134028196335, -0.1719193011522293, -0.16972222924232483, 0.05932236090302467, 0.03628542646765709, -0.06643407046794891, -0.14901162683963776, -0.2953534424304962, -0.06603958457708359, -0.18045735359191895, -0.005657409317791462, -0.18634209036827087], [0.13918852806091309, 0.21956686675548553, -0.02947891317307949, -0.04920784384012222, 0.08491633832454681, 0.14978161454200745, -0.03231259435415268, 0.03661837801337242, 0.16078521311283112, 0.16185219585895538, 0.09070948511362076, -0.18030916154384613, -0.22441312670707703, 0.06743384152650833, -0.2222868651151657, 0.02067948877811432, -0.02478245086967945, -0.12009645998477936, -0.14288528263568878, 0.16305771470069885, 0.2556900382041931, 0.04202353209257126, -0.008133848197758198, -0.166522815823555, 0.09839668869972229, -0.33018893003463745, -0.14910465478897095, -0.0670868456363678, 0.19970715045928955, -0.2664822041988373, 0.21495139598846436, 0.005496719852089882], [0.08914387226104736, 0.0006657722988165915, -0.15706168115139008, 0.09041427820920944, 0.15846766531467438, 0.056952815502882004, -0.09682466834783554, 0.04725036770105362, -0.16278111934661865, 0.11932989954948425, 0.08568240702152252, 0.054128725081682205, -0.11086994409561157, -0.10654855519533157, -0.14773523807525635, 0.2905386686325073, 0.07755383849143982, 0.06772850453853607, -0.049893006682395935, -0.06172747164964676, -0.08973769098520279, 0.16990038752555847, -0.03795210272073746, -0.07446511089801788, 0.05941776931285858, -0.01701357774436474, 0.016909638419747353, -0.12633201479911804, 0.0528450608253479, 0.09889747202396393, -0.005905851721763611, -0.04904822260141373], [0.013214589096605778, 0.19815199077129364, -0.14298377931118011, 0.11271260678768158, 0.09459637850522995, 0.10471435636281967, 0.09860705584287643, -0.047458864748477936, -0.027903962880373, 0.2006499022245407, 0.029179688543081284, 0.17316293716430664, -0.07329612225294113, -0.22379867732524872, -0.0515812411904335, -0.01824287138879299, -0.04616836458444595, -0.17141330242156982, -0.01862550713121891, 0.051348429173231125, -0.09814605861902237, 0.05934182554483414, -0.11951375752687454, 0.008463705889880657, -0.06157022714614868, -0.15334267914295197, -0.36749768257141113, 0.1547466218471527, -0.017579978331923485, -0.07146988809108734, -0.0005591104272753, 0.08739682286977768], [-0.02755609340965748, 0.01929326541721821, -0.3869865834712982, 0.19876879453659058, 0.022703992202878, 0.1110578253865242, -0.08962099999189377, -0.0005270963883958757, 0.10813009738922119, -0.1699007749557495, 0.1266712099313736, 0.08990684896707535, -0.16234079003334045, -0.01832827366888523, -0.03687406703829765, -0.002659948542714119, 0.025596361607313156, -0.3293101191520691, -0.334756463766098, -0.05763135850429535, -0.07932170480489731, -0.09158217906951904, 0.08976655453443527, 0.04027503356337547, 0.03983716666698456, 0.11146551370620728, -0.027309341356158257, 0.10507111251354218, 0.14871327579021454, -0.058423519134521484, 0.206584632396698, -0.10001302510499954], [0.22900328040122986, -0.10480985790491104, 0.08003034442663193, 0.07593999803066254, 0.17486625909805298, -0.03896084055304527, -0.03436920419335365, -0.3630456030368805, -0.2503642439842224, -0.10357357561588287, -0.4482436180114746, -0.04877506569027901, 0.14983226358890533, -0.04742525890469551, -0.1278732717037201, -0.17587541043758392, -0.09576673805713654, 0.09079688787460327, 0.06678900867700577, 0.22632141411304474, -0.10882166028022766, -0.12039577215909958, -0.11454401910305023, -0.018700500950217247, 0.18506820499897003, -0.06452719867229462, -0.16476666927337646, -0.008634096011519432, -0.0742393434047699, -0.10428044945001602, 0.20980563759803772, -0.01602035202085972], [0.1135021448135376, 0.21742941439151764, -0.22226238250732422, 0.05241325497627258, 0.16660818457603455, -0.1701955497264862, -0.09510831534862518, -0.17990761995315552, 0.01635156199336052, 0.08754805475473404, -0.2528499662876129, -0.17969119548797607, -0.11591321974992752, -0.21368558704853058, -0.37240874767303467, 0.08347342908382416, -0.29838183522224426, 0.06986945122480392, -0.07015858590602875, 0.05254350230097771, -0.15567344427108765, -0.17142874002456665, -0.047361671924591064, -0.24458277225494385, -0.04431096836924553, -0.03492754325270653, -0.22358188033103943, 0.16962948441505432, 0.029628640040755272, -0.37737807631492615, 0.07899046689271927, -0.015746884047985077], [-0.04322109371423721, -0.26223480701446533, -0.28106793761253357, 0.2135113924741745, 0.002892246935516596, 0.04450736194849014, -0.1428992599248886, -0.5451728105545044, -0.052047502249479294, 0.1434328258037567, 0.029338419437408447, -0.0922766923904419, -0.20602986216545105, -0.13330818712711334, -0.3283223807811737, 0.1242031455039978, 0.10371037572622299, 0.08181095868349075, 0.2227848321199417, -0.01816151849925518, 0.19199782609939575, -0.06460539996623993, 0.1213337779045105, -0.10187721997499466, 0.02755974978208542, -0.05076669901609421, 0.13276344537734985, -0.05833335965871811, -0.018189677968621254, 0.1090601310133934, 0.2512153089046478, 0.158819779753685], [0.034437280148267746, -0.16040661931037903, -0.05922333523631096, -0.0014858514769002795, 0.09015421569347382, 0.07593327015638351, 0.08784079551696777, -0.33621644973754883, -0.06879981607198715, 0.08806692808866501, -0.049546610563993454, 0.16388285160064697, 0.017251083627343178, 0.029169324785470963, -0.3112114667892456, -0.05737954005599022, -0.0793420672416687, 0.10176467895507812, -0.08609282970428467, 0.20973406732082367, -0.171921968460083, 0.10954199731349945, -0.09943116456270218, -0.11849989742040634, 0.13948458433151245, -0.13101178407669067, -0.34618380665779114, 0.2115698903799057, 0.13747037947177887, -0.02822333388030529, 0.12207023054361343, 0.23078666627407074], [-0.015179150737822056, 0.01092104334384203, -0.16407732665538788, 0.21768110990524292, 0.006242888513952494, -0.05980448052287102, -0.05129022151231766, -0.3885064423084259, 0.14009949564933777, -0.06123257055878639, -0.12665601074695587, 0.07389763742685318, 0.15508973598480225, -0.12338294833898544, -0.3449133038520813, -0.14132991433143616, -0.12563727796077728, -0.139668270945549, -0.11359396576881409, 0.29692432284355164, -0.10128872841596603, -0.08450508117675781, -0.004523019772022963, -0.1245759129524231, 0.3027425706386566, 0.06954964995384216, -0.21024493873119354, 0.09519191086292267, 0.26356029510498047, 0.05232718586921692, -0.07763498276472092, 0.1039900854229927], [0.18481095135211945, 0.022584591060876846, -0.21589669585227966, 0.12014413625001907, 0.1310369372367859, -0.04160761833190918, 0.032058894634246826, -0.3460581600666046, -0.2422073483467102, -0.007016013376414776, -0.0851021558046341, -0.17332221567630768, 0.07422961294651031, 0.01584571599960327, -0.5564553141593933, -0.015354562550783157, -0.11185647547245026, 0.09361908584833145, 0.14791534841060638, 0.11872843652963638, 0.0053997584618628025, -0.22580114006996155, 0.09755176305770874, -0.046590790152549744, -0.01828736625611782, -0.08695954084396362, 0.11303305625915527, 0.07635900378227234, 0.034238360822200775, -0.04215036332607269, 0.14774489402770996, -0.08361528068780899], [-0.023528054356575012, -0.03255995362997055, -0.1815108060836792, -0.07068964838981628, 0.008097182027995586, 0.10230781883001328, 0.11907655745744705, 0.04841336980462074, 0.20056138932704926, 0.02277333475649357, -0.35458263754844666, 0.1527869552373886, 0.05528506264090538, -0.009453373961150646, -0.2613562047481537, -0.018900716677308083, -0.1304771453142166, 0.19684511423110962, -0.12310706079006195, 0.07070475071668625, 0.1719759851694107, -0.09428863972425461, -0.020751265808939934, -0.05254513770341873, 0.2231113314628601, -0.1768752485513687, -0.0253817830234766, -0.09957902878522873, -0.10216454416513443, -0.22747470438480377, -0.048736732453107834, 0.025507930666208267], [-0.14593149721622467, -0.30013588070869446, 0.09886437654495239, -0.0015886827604845166, -0.04443524032831192, 0.016389409080147743, -0.015730665996670723, 0.1804431527853012, -0.0043119569309055805, 0.040824342519044876, -0.032055556774139404, -0.042650528252124786, 0.22315064072608948, -0.11442940682172775, -0.11866188794374466, -0.0212374497205019, 0.051885634660720825, 0.20024020969867706, -0.324940949678421, -0.12193199247121811, 0.011438174173235893, -0.1302299201488495, 0.10204514861106873, 0.12079659104347229, 0.133159801363945, -0.12106969952583313, 0.2785918712615967, -0.14145740866661072, -0.05499344691634178, 0.0499870590865612, -0.25492918491363525, -0.24430811405181885], [0.14145082235336304, -0.14360177516937256, -0.08854135870933533, -0.09903574734926224, -0.13043057918548584, 0.21780866384506226, -0.09665761888027191, -0.4278784394264221, -0.08646806329488754, -0.010705982334911823, -0.26072943210601807, 0.04109065607190132, 0.021901000291109085, 0.08810611069202423, -0.16824926435947418, -0.07781936973333359, -0.18189339339733124, -0.14076131582260132, 0.14042243361473083, 0.23573678731918335, -0.08496687561273575, -0.1521051824092865, 0.15375719964504242, -0.16878116130828857, 0.2484031617641449, 0.0299476720392704, -0.20757588744163513, -0.0015383032150566578, 0.25166991353034973, -0.10731647908687592, -0.09323082119226456, 0.12455641478300095]], "bias": [0.18815231323242188, 0.03581174090504646, 0.06378566473722458, 0.11587808281183243, -0.09184690564870834, -0.10649177432060242, -0.2661689221858978, 0.0015863169683143497, 0.07956442981958389, -0.31137412786483765, -0.1176273375749588, -0.17816069722175598, 0.13638636469841003, 0.2085321992635727, 0.020483726635575294, -0.25080373883247375, 0.23829875886440277, 0.03847276046872139, -0.05784185603260994, 0.05297968536615372, 0.07630664855241776, 0.127029150724411, -0.05705365166068077, 0.08188815414905548, -0.1506596803665161, 0.22109945118427277, -0.2215125858783722, -0.12383487075567245, -0.01684354431927204, 0.03153872489929199, 0.07823699712753296, -0.325570285320282]}], "mlp2": [{"weight": [[-0.034674566239118576, 0.3769543170928955, -0.3192179799079895, 0.4300555884838104, -0.17107424139976501, -0.14078690111637115, -0.0018677248153835535, -0.03309321403503418, 0.16259066760540009, -0.05478821322321892, -0.17974939942359924, 0.042742352932691574, 0.20172163844108582, -0.3910588026046753, -0.020559681579470634, -0.023482009768486023, 0.24238166213035583, -0.05393142253160477, -0.011857624165713787, -0.04247051477432251, 0.0838390365242958, 0.022976599633693695, 0.048560116440057755, 0.20343288779258728, 0.23470233380794525, -0.00530107319355011, 0.04330196604132652, -0.2403375506401062, -0.007084971759468317, 0.2433047592639923, -0.4028494358062744, -0.2806110680103302, 0.09078771620988846, 0.1028241291642189, 0.044499605894088745, 0.07611117511987686], [-0.1828586906194687, -0.01574571058154106, 0.08834924548864365, -0.12142650783061981, 0.11691608279943466, 0.00723910192027688, -0.07156399637460709, 0.22326403856277466, -0.17894455790519714, -0.0628448873758316, -0.17229588329792023, -0.0032310320530086756, 0.02714630402624607, 0.03412870317697525, 0.15188241004943848, -0.10157760977745056, -0.12195022404193878, -0.190553680062294, -0.17096474766731262, -0.14068588614463806, -0.043885089457035065, -0.11895348876714706, -0.11191873997449875, 0.053668588399887085, -0.14440499246120453, 0.0012284202966839075, 0.09959740191698074, 0.02662469446659088, -0.03306427225470543, -0.10154754668474197, -0.19009138643741608, -0.04011000692844391, -0.08800704777240753, -0.11676815152168274, 0.026861632242798805, -0.026717638596892357], [0.008633830584585667, 0.4503578841686249, 0.01640225574374199, -0.046977344900369644, -0.03240899369120598, -0.10481998324394226, -0.3369596004486084, -0.6140128374099731, -0.010882158763706684, -0.020205480977892876, -0.34384462237358093, -0.23571224510669708, -0.02090974897146225, 0.12028833478689194, -0.01084144413471222, 0.225760355591774, -0.12320888787508011, -0.08382008224725723, -0.09622429311275482, 0.20059938728809357, -0.06976357847452164, -0.12451063096523285, 0.19207312166690826, 0.21228063106536865, 0.08956451714038849, 0.07279185205698013, -0.041878897696733475, -0.11375278979539871, -0.019296107813715935, -0.04378754645586014, -0.2606559097766876, -0.057906169444322586, 0.031246351078152657, 0.09452776610851288, 0.1110462099313736, 0.2169952243566513], [-0.01932094246149063, 0.5051026344299316, -0.12528805434703827, 0.29967963695526123, -0.007433749735355377, 0.1611766517162323, 0.22159571945667267, 0.10208502411842346, -0.1229199767112732, -0.2979337275028229, 0.1774216741323471, -0.08901268243789673, -0.17369277775287628, -0.07156792283058167, 0.07585162669420242, 0.055383261293172836, 0.19328054785728455, 0.083506740629673, 0.17364779114723206, -0.021761789917945862, -0.04110147804021835, 0.061611950397491455, 0.0165912676602602, -0.06180485710501671, -0.13753536343574524, 0.14363372325897217, -0.18426896631717682, -0.20069970190525055, 0.30976060032844543, 0.028226610273122787, 0.03767835721373558, -0.10245450586080551, 0.08454802632331848, -0.03368934243917465, 0.18551410734653473, -0.2572222054004669], [-0.06525593996047974, -0.056142427027225494, 0.2778576612472534, -0.4609498381614685, 0.035735759884119034, 0.04938206449151039, 0.05590217933058739, 0.22312597930431366, 0.1113196387887001, 0.08299754559993744, 0.36813199520111084, 0.005085188429802656, 0.1240776777267456, 0.5233422517776489, 0.11302540451288223, 0.15407796204090118, -0.2955182194709778, 0.11487261950969696, 0.30447453260421753, 0.29396700859069824, 0.18676896393299103, 0.24503673613071442, -0.19097165763378143, -0.1121545359492302, -0.11675683408975601, 0.1813753992319107, 0.02682999148964882, 0.2761561870574951, 0.1729823648929596, 0.0379505380988121, 0.07945822179317474, 0.14106886088848114, 0.2728496193885803, -0.1747211515903473, 0.04351140558719635, 0.23440775275230408], [-0.009383667260408401, -0.5183539390563965, 0.4004257917404175, -0.17254355549812317, -0.05083705112338066, -0.11912483721971512, -0.2206195741891861, -0.23794300854206085, 0.05079033970832825, 0.11388945579528809, 0.053916752338409424, -0.087297722697258, -0.006076119840145111, 0.3050214350223541, 0.29800617694854736, 0.11227670311927795, -0.31033968925476074, 0.1392442286014557, 0.03572352975606918, -0.015352907590568066, 0.02134895510971546, -0.016405804082751274, -0.16946972906589508, 0.14756059646606445, -0.09442570805549622, 0.10804703086614609, 0.14951153099536896, 0.1954248994588852, -0.004637488164007664, -0.02803407423198223, 0.19229264557361603, 0.10041941702365875, 0.1545584499835968, -0.3419177234172821, -0.013276152312755585, -0.0664476752281189], [-0.08701186627149582, -0.033282287418842316, -0.08241936564445496, -0.08395116776227951, 0.08573748916387558, 0.0513232946395874, 0.12037438899278641, -0.045987531542778015, -0.07767856866121292, -0.024089328944683075, 0.1116548627614975, 0.061366744339466095, 0.01614094339311123, -0.01812513917684555, -0.1607503592967987, -0.04944879189133644, -0.03287108987569809, -0.006260228343307972, -0.1774452030658722, -0.11272849887609482, 0.008879483677446842, 0.03812959045171738, 0.07735631614923477, 0.10581234097480774, -0.16116099059581757, 0.09844755381345749, -0.1734413206577301, -0.11174315959215164, -0.14303039014339447, -0.1423637419939041, -0.10918033123016357, 0.07428307831287384, -0.029759947210550308, 0.1192292869091034, -0.06121130287647247, 0.13901148736476898], [0.025835758075118065, 0.2793693244457245, 0.01141473650932312, 0.512036144733429, -0.11058925092220306, -0.15233154594898224, -0.23251745104789734, -0.07888657599687576, 0.04846959933638573, 0.0673854872584343, -0.04589208960533142, -0.08894176036119461, 0.128551185131073, -0.37631484866142273, -0.020064065232872963, 0.14668433368206024, 0.0499877855181694, 0.12515640258789062, 0.1052434891462326, 0.01044556125998497, 0.21507619321346283, -0.0527801513671875, 0.15201318264007568, 0.2233956903219223, 0.13840211927890778, -0.14830586314201355, -0.06266836822032928, -0.03787519782781601, 0.038774192333221436, 0.19835369288921356, -0.13320276141166687, -0.2030038982629776, -0.06304456293582916, 0.0985400527715683, -0.2334790974855423, 0.06134314090013504], [-0.006670475006103516, -0.7551155090332031, 0.18524321913719177, -0.4447520077228546, -0.12905865907669067, -0.06455425918102264, -0.0714990571141243, -0.07409389317035675, 0.16513167321681976, 0.2710590362548828, 0.3245772421360016, -0.130658358335495, 0.05782530829310417, 0.12353171408176422, 0.05511808395385742, 0.21280181407928467, -0.23253241181373596, -0.12906640768051147, 0.006232954561710358, 0.2733471393585205, -0.16299864649772644, 0.08683130145072937, -0.1192496195435524, -0.06509389728307724, -0.1744135469198227, 0.1370927095413208, -0.19342035055160522, 0.022397356107831, 0.09771240502595901, -0.0587521456182003, 0.08757851272821426, 0.1770985871553421, 0.10323526710271835, -0.1631835401058197, -0.22303791344165802, 0.31299877166748047], [0.06412912160158157, 0.16668906807899475, 0.007383635267615318, 0.46604597568511963, 0.031758543103933334, -0.09890090674161911, -0.22825486958026886, -0.22787757217884064, 0.06417341530323029, 0.1308545470237732, -0.1191449761390686, 0.02044571191072464, 0.143971249461174, -0.41330525279045105, 0.016537893563508987, -0.007214795798063278, 0.22842633724212646, 0.12649843096733093, -0.1536736935377121, -0.1629142463207245, 0.17174597084522247, -0.031121518462896347, 0.05654530227184296, 0.18805551528930664, -0.013728274963796139, 0.04135257750749588, 0.11658268421888351, 0.0495908223092556, -0.12323904037475586, 0.20897400379180908, -0.1312979906797409, -0.18344378471374512, 0.020988238975405693, 0.19873975217342377, 0.04557870700955391, -0.14023704826831818], [0.006806193385273218, 0.20101934671401978, -0.2378379851579666, 0.24297837913036346, 0.00978793017566204, -0.1197078675031662, -0.03990989550948143, -0.03530673682689667, 0.009643066674470901, -0.046990081667900085, -0.14361070096492767, 0.20680539309978485, 0.15555135905742645, -0.2814391851425171, -0.25176605582237244, 0.07398206740617752, 0.370425820350647, 0.004142033867537975, 0.03698550537228584, -0.2116440385580063, 0.03175068274140358, 0.08832956850528717, 0.16325733065605164, 0.055835746228694916, 0.24817761778831482, 0.14983989298343658, 0.054190028458833694, -0.20426717400550842, -0.027615636587142944, 0.26410120725631714, -0.2856225073337555, -0.297664076089859, -0.09584326297044754, 0.24048568308353424, 0.12984724342823029, 0.09388182312250137], [0.10153736174106598, 0.37418150901794434, 0.182511106133461, 0.2503514587879181, -0.06878244876861572, -0.05903182923793793, 0.25292402505874634, 0.10464555770158768, -0.04516051337122917, -0.14034029841423035, -0.07925651222467422, 0.10596659034490585, -0.1438254863023758, 0.1598891317844391, -0.20026615262031555, -0.13607467710971832, 0.1317479908466339, 0.0866633728146553, 0.08493717759847641, -0.011923407204449177, -0.06332509964704514, 0.01997777447104454, -0.10913822054862976, -0.12203372269868851, 0.07155652344226837, -0.1421751081943512, 0.004515133798122406, -0.07377633452415466, 0.24743598699569702, -0.01827632263302803, -0.08412154018878937, 0.07008770853281021, -0.12485925108194351, -0.02928907983005047, 0.22134125232696533, -0.12016104906797409], [-0.06512270122766495, -0.0016796360723674297, -0.1860474944114685, -0.07762011140584946, -0.14782403409481049, -0.1255502998828888, -0.144356369972229, -0.00951126404106617, -0.09237337857484818, 0.05099804699420929, 0.05872795730829239, -0.08319170773029327, -0.038708098232746124, 0.04593559727072716, 0.0742223933339119, -0.17920330166816711, 0.12201978266239166, -0.18864938616752625, -0.1478135585784912, 0.13344641029834747, -0.15161214768886566, -0.12254884093999863, 0.10485566407442093, -0.1969723105430603, 0.010367900133132935, -0.16840612888336182, 0.06485041230916977, -0.02746257372200489, 0.08716543763875961, 0.040560077875852585, -0.19283731281757355, 0.14293397963047028, 0.0986226350069046, -0.05868011713027954, -0.04950002580881119, 0.020023280754685402], [0.0575975738465786, -0.14676666259765625, 0.4585886597633362, -0.18407417833805084, -0.14441700279712677, 0.2139514982700348, 0.14853571355342865, 0.09985632449388504, 0.12080822139978409, 0.05277660861611366, 0.3403507173061371, 0.12015391886234283, 0.15026777982711792, 0.47740882635116577, 0.2990153133869171, -0.07531815022230148, -0.32448166608810425, -0.08289367705583572, 0.3247743248939514, 0.3708050847053528, -0.03193751722574234, 0.21831464767456055, -0.11859206855297089, -0.042978014796972275, 0.06303630769252777, 0.24469420313835144, -0.14385566115379333, 0.17181454598903656, 0.17294518649578094, -0.016841914504766464, 0.26198628544807434, 0.3075341284275055, -0.043968237936496735, -0.19561532139778137, 0.015450485050678253, 0.026126952841877937], [0.008478834293782711, 0.6209692358970642, -0.13666191697120667, 0.14993543922901154, -0.017141373828053474, 0.21192598342895508, 0.2058369517326355, -0.012908079661428928, -0.009253582917153835, 0.0047415560111403465, -0.09253565222024918, 0.010340899229049683, 0.009881402365863323, 0.09354259073734283, -0.09073909372091293, -0.12447022646665573, 0.012971176765859127, 0.0335673950612545, 0.03022858500480652, -0.1092672124505043, 0.09501678496599197, -0.08626829087734222, 0.14401909708976746, -0.0828864574432373, -0.028456393629312515, -0.02021404728293419, 0.0006298398948274553, -0.0517311654984951, 0.07088419049978256, 0.14898857474327087, -0.08650373667478561, 0.009687425568699837, 0.08514460921287537, -0.006471746601164341, 0.05934366211295128, -0.22246244549751282], [0.004813092760741711, 0.31747275590896606, 0.09035903960466385, 0.5536416172981262, 0.12946495413780212, -0.16514985263347626, -0.2207878828048706, -0.02707531861960888, 0.20584169030189514, 0.05222515016794205, -0.1812189817428589, 0.12238753587007523, -0.024256262928247452, -0.2610226571559906, 0.06727411597967148, 0.12558341026306152, 0.2257518768310547, 0.24493558704853058, 0.12040962278842926, -0.14710241556167603, 0.06630588322877884, -0.02868993580341339, 0.14012625813484192, -0.06551768630743027, 0.04514447599649429, -0.14882822334766388, -0.12560948729515076, -0.08919859677553177, -0.21240489184856415, -0.04166870936751366, -0.022296952083706856, -0.2275572121143341, 0.030531946569681168, 0.3622450828552246, -0.17690864205360413, 0.11173373460769653], [0.016360124573111534, -0.11527305841445923, 0.03134831041097641, 0.02036339044570923, -0.10554983466863632, -0.01908799074590206, 0.11336158215999603, 0.0905054435133934, -0.009438633918762207, -0.0795753002166748, 0.12909653782844543, -0.006286025047302246, -0.035842202603816986, -0.12268804013729095, -0.08439155668020248, 0.09450473636388779, 0.05977135896682739, -0.02722964808344841, -0.02726801298558712, -0.058045923709869385, -0.11705110967159271, -0.0892869234085083, -0.11468738317489624, 0.041171830147504807, -0.060065411031246185, 0.07717488706111908, 0.013485650531947613, 0.04903199523687363, -0.0575830340385437, -0.07205753028392792, -0.08248689025640488, 0.09778261184692383, -0.1288405954837799, -0.07056532800197601, -0.13881370425224304, -0.028800031170248985], [0.017104923725128174, 0.5867358446121216, -0.06686898320913315, 0.197444885969162, 0.03765639662742615, 0.014472546055912971, 0.24864816665649414, -0.055808503180742264, -0.03193196654319763, -0.1727190613746643, 0.011370460502803326, 0.03154735639691353, 0.16781817376613617, -0.0068910857662558556, -0.14695198833942413, -0.0845039114356041, 0.040646299719810486, -0.08309397846460342, -0.07403302937746048, -0.020194927230477333, 0.13328726589679718, 0.052742455154657364, -0.05257655307650566, 0.028599223122000694, 0.03911883011460304, 0.0033454829826951027, 0.022395746782422066, -0.02653426304459572, 0.21623924374580383, -0.0055299848318099976, -0.106578528881073, 0.07299727946519852, -0.10135122388601303, -0.14398075640201569, 0.08097900450229645, -0.1380249261856079], [0.00533626414835453, -0.9429014921188354, 0.08234930783510208, -0.5404850840568542, -0.1115325540304184, -0.09380056709051132, -0.0910649523139, 0.04068533703684807, 0.07867636531591415, 0.1340460479259491, 0.11574245244264603, 0.030612222850322723, 0.048332199454307556, 0.07346028834581375, 0.1125306636095047, 0.16379494965076447, -0.32639873027801514, -0.024253468960523605, -0.008988849818706512, 0.24400773644447327, -0.17233866453170776, 0.07669998705387115, -0.06792888790369034, -0.014647366479039192, 0.0615108497440815, 0.007358679547905922, -0.05135509744286537, 0.09147890657186508, -0.1595136821269989, -0.06040642037987709, 0.1554444581270218, 0.12811855971813202, 0.008077291771769524, -0.06586696207523346, 0.01695987954735756, 0.35943272709846497], [0.023180825635790825, 0.43945837020874023, -0.07745016366243362, 0.17692969739437103, 0.12277057766914368, 0.1564103066921234, 0.08163458108901978, 0.03255339711904526, 0.05317763239145279, 0.0018176909070461988, 0.05076740309596062, 0.06355555355548859, 0.12365656346082687, -0.22434327006340027, -0.15255911648273468, -0.08086691796779633, -0.05412929132580757, -0.012993293814361095, 0.06763332337141037, -0.04200157895684242, -0.07469309121370316, -0.021788224577903748, -0.08096881955862045, -0.1286506950855255, 0.021130895242094994, 0.06025555729866028, -0.10750599205493927, -0.14438411593437195, 0.23504918813705444, -0.03350197896361351, -0.0510670468211174, -0.06508409231901169, 0.07210490852594376, -0.11185427010059357, 0.14145426452159882, -0.349427193403244], [0.0016209444729611278, -0.08271947503089905, -0.025775328278541565, -0.026382770389318466, -0.1803320050239563, -0.17712730169296265, -0.14088253676891327, 0.0761575847864151, 0.039955832064151764, 0.1178685873746872, 0.1395447552204132, -0.04231429472565651, -0.1646173745393753, 0.09486553817987442, 0.10312867909669876, 0.08600491285324097, 0.002102900994941592, 0.021105727180838585, 0.027464427053928375, -0.07688579708337784, -0.04928475245833397, -0.17761456966400146, -0.10142065584659576, -0.02917994000017643, -0.08161335438489914, 0.06600020825862885, -0.07914601266384125, 0.040663234889507294, -0.030145077034831047, -0.07408330589532852, 0.11925676465034485, 0.013032641261816025, -0.20066821575164795, -0.06526833772659302, -0.07266940921545029, 0.0020800705533474684], [-0.15116973221302032, -0.04303829371929169, -0.0790925845503807, -0.05161743983626366, -0.13771896064281464, 0.0007968574063852429, 0.07032793760299683, -0.15824048221111298, -0.15839363634586334, -0.14012423157691956, -0.004773276392370462, -0.05644277483224869, 0.046910736709833145, 0.021751129999756813, 0.1084042638540268, 0.08030574023723602, -0.08875446766614914, -0.00267612817697227, -0.028553897514939308, -0.058811724185943604, -0.10395864397287369, -0.039549339562654495, -0.10326437652111053, -0.14769063889980316, 0.02688128687441349, -0.09218724817037582, -0.15107035636901855, -0.14619475603103638, -0.12828372418880463, -0.06160329282283783, 0.0870366245508194, 0.13786405324935913, -0.11737018078565598, -0.08905860036611557, 0.022291621193289757, 0.14506672322750092], [-0.013516945764422417, 0.39142024517059326, -0.1467510461807251, 0.31429803371429443, -0.02409321814775467, -0.12268217653036118, -0.004006444476544857, -0.08359233289957047, 0.11055335402488708, 0.12036024034023285, -0.17549793422222137, 0.17645052075386047, 0.03825080022215843, -0.4108911156654358, -0.23082034289836884, 0.17968495190143585, 0.14301837980747223, 0.2278367578983307, -0.16514737904071808, -0.18291828036308289, 0.15921416878700256, -0.13471688330173492, 0.12409327179193497, -0.030399248003959656, 0.02061038836836815, -0.1496262550354004, 0.19030976295471191, -0.0850943922996521, -0.26069241762161255, 0.20842322707176208, -0.28289729356765747, -0.08074213564395905, 0.1550906002521515, 0.16947752237319946, 0.2016802728176117, -0.04292137548327446], [-0.0054308450780808926, -0.9256420135498047, 0.017656629905104637, -0.47842511534690857, -0.07393302768468857, -0.13908472657203674, 0.011979474686086178, -0.2267092615365982, 0.18578803539276123, 0.024901000782847404, 0.20836326479911804, -0.11730719357728958, -0.06575456261634827, 0.020063787698745728, 0.09789615124464035, 0.11539924889802933, -0.17254021763801575, -0.17673495411872864, 0.01850801147520542, 0.21410433948040009, -0.1374094933271408, -0.07497043162584305, -0.06401132792234421, 0.05740363523364067, -0.0027451745700091124, -0.12019355595111847, 0.052278779447078705, 0.12456628680229187, -0.09624896198511124, 0.025835460051894188, 0.11467906087636948, 0.28430187702178955, 0.14146791398525238, -0.15058495104312897, -0.09475158900022507, 0.4070083200931549], [0.003913923166692257, -0.9789682626724243, 0.03740299865603447, -0.5271018147468567, -0.10724451392889023, -0.13634835183620453, -0.08966180682182312, -0.0557730458676815, -0.11462441086769104, 0.06636416167020798, 0.22535674273967743, -0.0001583241974003613, 0.0522436685860157, 0.12568563222885132, 0.13814619183540344, 0.1549294888973236, -0.06696993857622147, -0.01768539845943451, 0.055580612272024155, 0.20547598600387573, -0.08638052642345428, -0.0009900633012875915, 0.1297343373298645, -0.05167612060904503, -0.16219477355480194, 0.11037751287221909, 0.05730094015598297, 0.02811598777770996, 0.09897355735301971, -0.09222114831209183, 0.11832019686698914, 0.2545047402381897, 0.19921241700649261, 0.04720605909824371, -0.1742410659790039, 0.4208311438560486], [-0.2042625993490219, 0.2363407015800476, 0.035639092326164246, 0.590301513671875, -0.0669340193271637, -0.1297859400510788, -0.07669531553983688, -0.24219223856925964, 0.09535586833953857, 0.1219252198934555, -0.20782974362373352, 0.010493175126612186, 0.07349497824907303, -0.46227818727493286, 0.07386520504951477, 0.12958762049674988, -0.062092602252960205, 0.2557452619075775, -0.002876420971006155, -0.19614453613758087, 0.22797857224941254, -0.05143693834543228, 0.2446538805961609, 0.10931259393692017, -0.03466920927166939, 0.08088555186986923, -0.12392719835042953, -0.1873999834060669, -0.14009973406791687, 0.21107293665409088, -0.0664629116654396, 0.0018133667763322592, -0.03158005699515343, 0.24387682974338531, 0.06458427011966705, -0.11393412947654724], [0.06895339488983154, 0.3577447235584259, 0.1138904020190239, 0.5279276371002197, 0.05755305290222168, 0.032637596130371094, -0.1906367391347885, -0.07264766097068787, 0.07964466512203217, 0.08695012331008911, -0.05047561228275299, 0.05112864822149277, 0.20807060599327087, -0.22496859729290009, -0.0967664122581482, 0.009280482307076454, -0.04433972388505936, 0.19006551802158356, -0.007332514505833387, -0.07604318112134933, -0.012305022217333317, -0.21617305278778076, -0.013405331410467625, 0.18877792358398438, 0.1956050843000412, 0.07660449296236038, 0.17553134262561798, 0.012163841165602207, -0.1893014758825302, 0.01696023717522621, -0.19252069294452667, -0.12813806533813477, -0.02402738481760025, 0.23577843606472015, 0.004904402419924736, 0.11138026416301727], [0.04034703969955444, 0.4931930899620056, 0.24342724680900574, -0.14973928034305573, -0.1613653600215912, -0.19356012344360352, -0.28927481174468994, -0.44976264238357544, 0.2412131428718567, 0.0073606097139418125, -0.03181905671954155, -0.29450613260269165, 0.10654619336128235, 0.0669817104935646, 0.08132704347372055, 0.3041442930698395, 0.09544812887907028, 0.15769460797309875, -0.2487972527742386, 0.030998777598142624, -0.1549219787120819, -0.37328943610191345, 0.28405502438545227, 0.24978861212730408, 0.11731461435556412, 0.2055714875459671, 0.06183582544326782, -0.24583545327186584, -0.1425204873085022, 0.2583622336387634, -0.27163270115852356, -0.008488685823976994, -0.33970391750335693, 0.13285626471042633, -0.07121938467025757, 0.20517772436141968], [0.016032898798584938, 0.545647919178009, -0.20512337982654572, 0.16743464767932892, 0.0735815241932869, 0.15491922199726105, 0.27012866735458374, 0.043820470571517944, -0.07457154989242554, -0.2495439201593399, -0.12330237030982971, -0.045175157487392426, 0.15292243659496307, -0.04741649702191353, -0.0724819079041481, -0.16323797404766083, 0.02631709910929203, -0.0881136879324913, -0.08671851456165314, 0.022701557725667953, 0.2399125099182129, -0.08836562186479568, -0.08178286999464035, 0.09394799917936325, 0.06146952882409096, 0.06622514873743057, -0.0028283880092203617, -0.10901899635791779, 0.23820823431015015, -0.04796992242336273, -0.022343561053276062, -0.05303729698061943, 0.12146487832069397, 0.0800926461815834, 0.23141206800937653, -0.1444263756275177], [-0.00395575724542141, -0.5522317886352539, 0.09467297792434692, -0.6550436019897461, -0.09245119243860245, -0.10366930812597275, -0.02391248196363449, -0.2065763771533966, 0.03528957813978195, 0.16551540791988373, -0.012287644669413567, -0.004347387235611677, 0.15988636016845703, 0.38347622752189636, 0.21138492226600647, 0.3550960123538971, -0.38325953483581543, -0.04991729557514191, 0.18646842241287231, 0.10326694697141647, -0.12936826050281525, 0.0016992139862850308, 0.042674470692873, 0.21462829411029816, 0.049660127609968185, -0.006825691554695368, 0.017492931336164474, 0.06908708810806274, -0.06556902825832367, 0.07104034721851349, 0.1661226898431778, 0.05643322318792343, -0.035327713936567307, -0.07833806425333023, -0.18183313310146332, 0.1453092396259308], [0.20306217670440674, 0.2772892117500305, 0.13332945108413696, -0.4640882611274719, 0.02211395651102066, 0.043086424469947815, -0.8200379014015198, -0.3114265203475952, -0.09605029970407486, 0.028812019154429436, 0.08152788132429123, -0.34909364581108093, 0.14890657365322113, -0.17422230541706085, -0.029574822634458542, 0.03963255137205124, 0.24194283783435822, 0.17296624183654785, 0.0945887342095375, 0.3637348711490631, 0.10788809508085251, -0.11540596932172775, -0.19277797639369965, 0.016825241968035698, 0.19046419858932495, 0.17381709814071655, 0.02676941081881523, -0.04358166083693504, -0.15837888419628143, -0.02403431199491024, 0.1244356781244278, -0.0334043949842453, -0.19463315606117249, 0.2365894615650177, 0.0012492738896980882, -0.08021043241024017], [0.014265142381191254, 0.4659920930862427, 0.028808824717998505, 0.16107793152332306, -0.011918427422642708, -0.04553074762225151, 0.18388225138187408, 0.05533067509531975, -0.07279106974601746, -0.13026665151119232, -0.09619782865047455, -0.0331447497010231, 0.15317898988723755, 0.18200995028018951, -0.14171287417411804, -0.15636684000492096, -0.00036065856693312526, -0.05037793144583702, 0.006938902195543051, -0.11092021316289902, -0.002016007201746106, 0.048998381942510605, 0.0891120508313179, 0.03706449642777443, -0.11552900075912476, 0.058421604335308075, 0.04064243659377098, -0.03871778026223183, 0.17611850798130035, 0.023837829008698463, -0.011732347309589386, -0.03454601764678955, 0.13889259099960327, -0.03739335015416145, 0.24666140973567963, -0.0972815603017807]], "bias": [0.011465818621218204, 0.08280591666698456, 0.03127703815698624, 0.06131839007139206, 0.11404559016227722, -0.14182451367378235, -0.05077975615859032, 0.1753324568271637, -0.09629114717245102, -0.0025961706414818764, 0.22784645855426788, 0.09791327267885208, 0.05430163815617561, -0.07750324159860611, 0.22125355899333954, 0.24278397858142853, -0.08751551806926727, 0.21343889832496643, -0.23745664954185486, 0.1696891486644745, -0.06675615906715393, -0.09209763258695602, 0.19524553418159485, -0.05055754631757736, -0.2475924789905548, 0.1915009468793869, 0.09859345108270645, -0.034770525991916656, 0.03183896839618683, -0.04226700961589813, -0.0449720062315464, 0.1101653203368187]}, {"weight": [[0.356962114572525, -0.009832829236984253, 0.6170673966407776, -0.48716944456100464, -0.2388787716627121, -0.45177534222602844, -0.010665162466466427, 0.4645225703716278, -0.9713590145111084, 0.3232158124446869, 0.24470627307891846, -0.3310379981994629, -0.0715629979968071, -0.3422250747680664, -0.5608312487602234, 0.33973294496536255, 0.13548961281776428, -0.3647565245628357, -0.9019594192504883, -0.3517040014266968, 0.10095499455928802, -0.11936364322900772, 0.4035758674144745, -1.0044373273849487, -1.0819207429885864, 0.32990407943725586, 0.4063217341899872, 0.5136988759040833, -0.4351559579372406, -0.5135324597358704, 0.2907804548740387, -0.37971773743629456]], "bias": [0.27592384815216064]}]}